digraph Tree {
node [shape=box] ;
0 [label="minZ <= 8.38\nentropy = 0.9039\nsamples = 14346\nvalue = [4585, 9761]"] ;
1 [label="entropy <= -151.1854\nentropy = 0.759\nsamples = 5215\nvalue = [4071, 1144]"] ;
0 -> 1 [labeldistance=2.5, labelangle=45, headlabel="True"] ;
2 [label="Variance X <= 0.4594\nentropy = 0.8231\nsamples = 590\nvalue = [152, 438]"] ;
1 -> 2 ;
3 [label="Variance X <= 0.0065\nentropy = 0.6181\nsamples = 450\nvalue = [69, 381]"] ;
2 -> 3 ;
4 [label="medianX <= 3.387\nentropy = 0.9523\nsamples = 43\nvalue = [27, 16]"] ;
3 -> 4 ;
5 [label="Variance X <= 0.0025\nentropy = 0.7335\nsamples = 34\nvalue = [27, 7]"] ;
4 -> 5 ;
6 [label="magnitude <= 9.7616\nentropy = 0.2975\nsamples = 19\nvalue = [18, 1]"] ;
5 -> 6 ;
7 [label="entropy = 0.0\nsamples = 13\nvalue = [13, 0]"] ;
6 -> 7 ;
8 [label="mean Y <= 5.7201\nentropy = 0.65\nsamples = 6\nvalue = [5, 1]"] ;
6 -> 8 ;
9 [label="entropy = 0.0\nsamples = 5\nvalue = [5, 0]"] ;
8 -> 9 ;
10 [label="entropy = 0.0\nsamples = 1\nvalue = [0, 1]"] ;
8 -> 10 ;
11 [label="minX <= 0.0398\nentropy = 0.971\nsamples = 15\nvalue = [9, 6]"] ;
5 -> 11 ;
12 [label="maxX <= -1.7275\nentropy = 0.8113\nsamples = 12\nvalue = [9, 3]"] ;
11 -> 12 ;
13 [label="mean Z <= 3.6898\nentropy = 0.9183\nsamples = 3\nvalue = [1, 2]"] ;
12 -> 13 ;
14 [label="entropy = 0.0\nsamples = 1\nvalue = [1, 0]"] ;
13 -> 14 ;
15 [label="entropy = 0.0\nsamples = 2\nvalue = [0, 2]"] ;
13 -> 15 ;
16 [label="mean X <= -0.1541\nentropy = 0.5033\nsamples = 9\nvalue = [8, 1]"] ;
12 -> 16 ;
17 [label="entropy = 0.0\nsamples = 8\nvalue = [8, 0]"] ;
16 -> 17 ;
18 [label="entropy = 0.0\nsamples = 1\nvalue = [0, 1]"] ;
16 -> 18 ;
19 [label="entropy = 0.0\nsamples = 3\nvalue = [0, 3]"] ;
11 -> 19 ;
20 [label="entropy = 0.0\nsamples = 9\nvalue = [0, 9]"] ;
4 -> 20 ;
21 [label="maxZ <= 11.2681\nentropy = 0.479\nsamples = 407\nvalue = [42, 365]"] ;
3 -> 21 ;
22 [label="meanCX <= 12.5\nentropy = 0.4065\nsamples = 394\nvalue = [32, 362]"] ;
21 -> 22 ;
23 [label="maxX <= 4.2588\nentropy = 0.3905\nsamples = 391\nvalue = [30, 361]"] ;
22 -> 23 ;
24 [label="mean X <= 1.6125\nentropy = 0.4825\nsamples = 278\nvalue = [29, 249]"] ;
23 -> 24 ;
25 [label="meanCY <= 2.5\nentropy = 0.3755\nsamples = 248\nvalue = [18, 230]"] ;
24 -> 25 ;
26 [label="minY <= 7.8345\nentropy = 0.7467\nsamples = 47\nvalue = [10, 37]"] ;
25 -> 26 ;
27 [label="maxZ <= 7.7252\nentropy = 0.6752\nsamples = 45\nvalue = [8, 37]"] ;
26 -> 27 ;
28 [label="entropy = 0.0\nsamples = 10\nvalue = [0, 10]"] ;
27 -> 28 ;
29 [label="meanCZ <= 3.5\nentropy = 0.7755\nsamples = 35\nvalue = [8, 27]"] ;
27 -> 29 ;
30 [label="medianZ <= 7.4522\nentropy = 0.9183\nsamples = 21\nvalue = [7, 14]"] ;
29 -> 30 ;
31 [label="entropy = 0.0\nsamples = 2\nvalue = [2, 0]"] ;
30 -> 31 ;
32 [label="medianY <= -2.5267\nentropy = 0.8315\nsamples = 19\nvalue = [5, 14]"] ;
30 -> 32 ;
33 [label="entropy = 0.0\nsamples = 6\nvalue = [0, 6]"] ;
32 -> 33 ;
34 [label="maxX <= -5.5598\nentropy = 0.9612\nsamples = 13\nvalue = [5, 8]"] ;
32 -> 34 ;
35 [label="entropy = 0.0\nsamples = 2\nvalue = [0, 2]"] ;
34 -> 35 ;
36 [label="mean Y <= 4.9072\nentropy = 0.994\nsamples = 11\nvalue = [5, 6]"] ;
34 -> 36 ;
37 [label="medianY <= 2.1115\nentropy = 0.7219\nsamples = 5\nvalue = [4, 1]"] ;
36 -> 37 ;
38 [label="medianZ <= 9.2399\nentropy = 1.0\nsamples = 2\nvalue = [1, 1]"] ;
37 -> 38 ;
39 [label="entropy = 0.0\nsamples = 1\nvalue = [1, 0]"] ;
38 -> 39 ;
40 [label="entropy = 0.0\nsamples = 1\nvalue = [0, 1]"] ;
38 -> 40 ;
41 [label="entropy = 0.0\nsamples = 3\nvalue = [3, 0]"] ;
37 -> 41 ;
42 [label="magnitude <= 10.2643\nentropy = 0.65\nsamples = 6\nvalue = [1, 5]"] ;
36 -> 42 ;
43 [label="entropy = 0.0\nsamples = 5\nvalue = [0, 5]"] ;
42 -> 43 ;
44 [label="entropy = 0.0\nsamples = 1\nvalue = [1, 0]"] ;
42 -> 44 ;
45 [label="Variance Z <= 0.3912\nentropy = 0.3712\nsamples = 14\nvalue = [1, 13]"] ;
29 -> 45 ;
46 [label="entropy = 0.0\nsamples = 12\nvalue = [0, 12]"] ;
45 -> 46 ;
47 [label="maxX <= -1.4418\nentropy = 1.0\nsamples = 2\nvalue = [1, 1]"] ;
45 -> 47 ;
48 [label="entropy = 0.0\nsamples = 1\nvalue = [0, 1]"] ;
47 -> 48 ;
49 [label="entropy = 0.0\nsamples = 1\nvalue = [1, 0]"] ;
47 -> 49 ;
50 [label="entropy = 0.0\nsamples = 2\nvalue = [2, 0]"] ;
26 -> 50 ;
51 [label="entropy <= -159.5535\nentropy = 0.2414\nsamples = 201\nvalue = [8, 193]"] ;
25 -> 51 ;
52 [label="maxY <= -3.3673\nentropy = 0.1572\nsamples = 175\nvalue = [4, 171]"] ;
51 -> 52 ;
53 [label="Variance Z <= 0.7196\nentropy = 0.406\nsamples = 37\nvalue = [3, 34]"] ;
52 -> 53 ;
54 [label="mean X <= -7.766\nentropy = 0.3095\nsamples = 36\nvalue = [2, 34]"] ;
53 -> 54 ;
55 [label="entropy = 0.0\nsamples = 1\nvalue = [1, 0]"] ;
54 -> 55 ;
56 [label="Variance Y <= 0.1436\nentropy = 0.1872\nsamples = 35\nvalue = [1, 34]"] ;
54 -> 56 ;
57 [label="entropy = 0.0\nsamples = 23\nvalue = [0, 23]"] ;
56 -> 57 ;
58 [label="Variance X <= 0.1394\nentropy = 0.4138\nsamples = 12\nvalue = [1, 11]"] ;
56 -> 58 ;
59 [label="entropy = 0.0\nsamples = 7\nvalue = [0, 7]"] ;
58 -> 59 ;
60 [label="Variance Y <= 0.1542\nentropy = 0.7219\nsamples = 5\nvalue = [1, 4]"] ;
58 -> 60 ;
61 [label="entropy = 0.0\nsamples = 1\nvalue = [1, 0]"] ;
60 -> 61 ;
62 [label="entropy = 0.0\nsamples = 4\nvalue = [0, 4]"] ;
60 -> 62 ;
63 [label="entropy = 0.0\nsamples = 1\nvalue = [1, 0]"] ;
53 -> 63 ;
64 [label="meanCZ <= 3.5\nentropy = 0.0619\nsamples = 138\nvalue = [1, 137]"] ;
52 -> 64 ;
65 [label="magnitude <= 10.2162\nentropy = 0.1872\nsamples = 35\nvalue = [1, 34]"] ;
64 -> 65 ;
66 [label="entropy = 0.0\nsamples = 29\nvalue = [0, 29]"] ;
65 -> 66 ;
67 [label="medianX <= -4.4596\nentropy = 0.65\nsamples = 6\nvalue = [1, 5]"] ;
65 -> 67 ;
68 [label="entropy = 0.0\nsamples = 5\nvalue = [0, 5]"] ;
67 -> 68 ;
69 [label="entropy = 0.0\nsamples = 1\nvalue = [1, 0]"] ;
67 -> 69 ;
70 [label="entropy = 0.0\nsamples = 103\nvalue = [0, 103]"] ;
64 -> 70 ;
71 [label="FFTY <= 0.0156\nentropy = 0.6194\nsamples = 26\nvalue = [4, 22]"] ;
51 -> 71 ;
72 [label="entropy = 0.0\nsamples = 14\nvalue = [0, 14]"] ;
71 -> 72 ;
73 [label="entropy <= -158.7468\nentropy = 0.9183\nsamples = 12\nvalue = [4, 8]"] ;
71 -> 73 ;
74 [label="entropy = 0.0\nsamples = 1\nvalue = [1, 0]"] ;
73 -> 74 ;
75 [label="minZ <= 8.0191\nentropy = 0.8454\nsamples = 11\nvalue = [3, 8]"] ;
73 -> 75 ;
76 [label="Variance Y <= 0.2684\nentropy = 1.0\nsamples = 6\nvalue = [3, 3]"] ;
75 -> 76 ;
77 [label="minY <= -2.7341\nentropy = 0.8113\nsamples = 4\nvalue = [1, 3]"] ;
76 -> 77 ;
78 [label="entropy = 0.0\nsamples = 3\nvalue = [0, 3]"] ;
77 -> 78 ;
79 [label="entropy = 0.0\nsamples = 1\nvalue = [1, 0]"] ;
77 -> 79 ;
80 [label="entropy = 0.0\nsamples = 2\nvalue = [2, 0]"] ;
76 -> 80 ;
81 [label="entropy = 0.0\nsamples = 5\nvalue = [0, 5]"] ;
75 -> 81 ;
82 [label="medianZ <= 8.5425\nentropy = 0.9481\nsamples = 30\nvalue = [11, 19]"] ;
24 -> 82 ;
83 [label="meanCX <= 5.5\nentropy = 0.9641\nsamples = 18\nvalue = [11, 7]"] ;
82 -> 83 ;
84 [label="minZ <= 8.1338\nentropy = 0.9457\nsamples = 11\nvalue = [4, 7]"] ;
83 -> 84 ;
85 [label="entropy <= -168.5277\nentropy = 0.7642\nsamples = 9\nvalue = [2, 7]"] ;
84 -> 85 ;
86 [label="entropy = 0.0\nsamples = 6\nvalue = [0, 6]"] ;
85 -> 86 ;
87 [label="medianY <= -0.6178\nentropy = 0.9183\nsamples = 3\nvalue = [2, 1]"] ;
85 -> 87 ;
88 [label="entropy = 0.0\nsamples = 2\nvalue = [2, 0]"] ;
87 -> 88 ;
89 [label="entropy = 0.0\nsamples = 1\nvalue = [0, 1]"] ;
87 -> 89 ;
90 [label="entropy = 0.0\nsamples = 2\nvalue = [2, 0]"] ;
84 -> 90 ;
91 [label="entropy = 0.0\nsamples = 7\nvalue = [7, 0]"] ;
83 -> 91 ;
92 [label="entropy = 0.0\nsamples = 12\nvalue = [0, 12]"] ;
82 -> 92 ;
93 [label="Variance Z <= 0.0166\nentropy = 0.0731\nsamples = 113\nvalue = [1, 112]"] ;
23 -> 93 ;
94 [label="Variance Y <= 0.0559\nentropy = 0.258\nsamples = 23\nvalue = [1, 22]"] ;
93 -> 94 ;
95 [label="entropy = 0.0\nsamples = 22\nvalue = [0, 22]"] ;
94 -> 95 ;
96 [label="entropy = 0.0\nsamples = 1\nvalue = [1, 0]"] ;
94 -> 96 ;
97 [label="entropy = 0.0\nsamples = 90\nvalue = [0, 90]"] ;
93 -> 97 ;
98 [label="mean Z <= 7.0824\nentropy = 0.9183\nsamples = 3\nvalue = [2, 1]"] ;
22 -> 98 ;
99 [label="entropy = 0.0\nsamples = 2\nvalue = [2, 0]"] ;
98 -> 99 ;
100 [label="entropy = 0.0\nsamples = 1\nvalue = [0, 1]"] ;
98 -> 100 ;
101 [label="Variance Z <= 1.7293\nentropy = 0.7793\nsamples = 13\nvalue = [10, 3]"] ;
21 -> 101 ;
102 [label="meanCZ <= 3.5\nentropy = 0.9852\nsamples = 7\nvalue = [4, 3]"] ;
101 -> 102 ;
103 [label="entropy = 0.0\nsamples = 3\nvalue = [3, 0]"] ;
102 -> 103 ;
104 [label="maxY <= -1.5614\nentropy = 0.8113\nsamples = 4\nvalue = [1, 3]"] ;
102 -> 104 ;
105 [label="entropy = 0.0\nsamples = 1\nvalue = [1, 0]"] ;
104 -> 105 ;
106 [label="entropy = 0.0\nsamples = 3\nvalue = [0, 3]"] ;
104 -> 106 ;
107 [label="entropy = 0.0\nsamples = 6\nvalue = [6, 0]"] ;
101 -> 107 ;
108 [label="Variance Z <= 1.0664\nentropy = 0.975\nsamples = 140\nvalue = [83, 57]"] ;
2 -> 108 ;
109 [label="mean X <= 1.3921\nentropy = 0.9763\nsamples = 83\nvalue = [34, 49]"] ;
108 -> 109 ;
110 [label="meanCZ <= 1.5\nentropy = 0.9183\nsamples = 69\nvalue = [23, 46]"] ;
109 -> 110 ;
111 [label="entropy = 0.0\nsamples = 6\nvalue = [0, 6]"] ;
110 -> 111 ;
112 [label="minY <= -0.7014\nentropy = 0.9468\nsamples = 63\nvalue = [23, 40]"] ;
110 -> 112 ;
113 [label="Variance Z <= 0.3921\nentropy = 0.995\nsamples = 48\nvalue = [22, 26]"] ;
112 -> 113 ;
114 [label="medianY <= -2.0405\nentropy = 0.5033\nsamples = 9\nvalue = [1, 8]"] ;
113 -> 114 ;
115 [label="entropy = 0.0\nsamples = 6\nvalue = [0, 6]"] ;
114 -> 115 ;
116 [label="maxZ <= 9.8637\nentropy = 0.9183\nsamples = 3\nvalue = [1, 2]"] ;
114 -> 116 ;
117 [label="entropy = 0.0\nsamples = 2\nvalue = [0, 2]"] ;
116 -> 117 ;
118 [label="entropy = 0.0\nsamples = 1\nvalue = [1, 0]"] ;
116 -> 118 ;
119 [label="Variance X <= 0.8347\nentropy = 0.9957\nsamples = 39\nvalue = [21, 18]"] ;
113 -> 119 ;
120 [label="mean Y <= -2.7981\nentropy = 0.8113\nsamples = 12\nvalue = [9, 3]"] ;
119 -> 120 ;
121 [label="entropy = 0.0\nsamples = 5\nvalue = [5, 0]"] ;
120 -> 121 ;
122 [label="mean Z <= 9.3598\nentropy = 0.9852\nsamples = 7\nvalue = [4, 3]"] ;
120 -> 122 ;
123 [label="entropy = 0.0\nsamples = 3\nvalue = [0, 3]"] ;
122 -> 123 ;
124 [label="entropy = 0.0\nsamples = 4\nvalue = [4, 0]"] ;
122 -> 124 ;
125 [label="FFTX <= -0.4844\nentropy = 0.9911\nsamples = 27\nvalue = [12, 15]"] ;
119 -> 125 ;
126 [label="entropy = 0.0\nsamples = 8\nvalue = [0, 8]"] ;
125 -> 126 ;
127 [label="maxZ <= 10.9761\nentropy = 0.9495\nsamples = 19\nvalue = [12, 7]"] ;
125 -> 127 ;
128 [label="medianY <= -7.8015\nentropy = 0.874\nsamples = 17\nvalue = [12, 5]"] ;
127 -> 128 ;
129 [label="entropy = 0.0\nsamples = 1\nvalue = [0, 1]"] ;
128 -> 129 ;
130 [label="FFTX <= 0.4531\nentropy = 0.8113\nsamples = 16\nvalue = [12, 4]"] ;
128 -> 130 ;
131 [label="zeroX <= 2.0\nentropy = 0.4138\nsamples = 12\nvalue = [11, 1]"] ;
130 -> 131 ;
132 [label="medianY <= -4.9599\nentropy = 1.0\nsamples = 2\nvalue = [1, 1]"] ;
131 -> 132 ;
133 [label="entropy = 0.0\nsamples = 1\nvalue = [1, 0]"] ;
132 -> 133 ;
134 [label="entropy = 0.0\nsamples = 1\nvalue = [0, 1]"] ;
132 -> 134 ;
135 [label="entropy = 0.0\nsamples = 10\nvalue = [10, 0]"] ;
131 -> 135 ;
136 [label="entropy <= -164.218\nentropy = 0.8113\nsamples = 4\nvalue = [1, 3]"] ;
130 -> 136 ;
137 [label="entropy = 0.0\nsamples = 1\nvalue = [1, 0]"] ;
136 -> 137 ;
138 [label="entropy = 0.0\nsamples = 3\nvalue = [0, 3]"] ;
136 -> 138 ;
139 [label="entropy = 0.0\nsamples = 2\nvalue = [0, 2]"] ;
127 -> 139 ;
140 [label="zeroY <= 0.5\nentropy = 0.3534\nsamples = 15\nvalue = [1, 14]"] ;
112 -> 140 ;
141 [label="maxY <= 7.0675\nentropy = 0.9183\nsamples = 3\nvalue = [1, 2]"] ;
140 -> 141 ;
142 [label="entropy = 0.0\nsamples = 1\nvalue = [1, 0]"] ;
141 -> 142 ;
143 [label="entropy = 0.0\nsamples = 2\nvalue = [0, 2]"] ;
141 -> 143 ;
144 [label="entropy = 0.0\nsamples = 12\nvalue = [0, 12]"] ;
140 -> 144 ;
145 [label="maxY <= 0.4964\nentropy = 0.7496\nsamples = 14\nvalue = [11, 3]"] ;
109 -> 145 ;
146 [label="mean Y <= -3.0331\nentropy = 0.9183\nsamples = 9\nvalue = [6, 3]"] ;
145 -> 146 ;
147 [label="mean Z <= 5.6011\nentropy = 0.5917\nsamples = 7\nvalue = [6, 1]"] ;
146 -> 147 ;
148 [label="meanCX <= 8.5\nentropy = 1.0\nsamples = 2\nvalue = [1, 1]"] ;
147 -> 148 ;
149 [label="entropy = 0.0\nsamples = 1\nvalue = [0, 1]"] ;
148 -> 149 ;
150 [label="entropy = 0.0\nsamples = 1\nvalue = [1, 0]"] ;
148 -> 150 ;
151 [label="entropy = 0.0\nsamples = 5\nvalue = [5, 0]"] ;
147 -> 151 ;
152 [label="entropy = 0.0\nsamples = 2\nvalue = [0, 2]"] ;
146 -> 152 ;
153 [label="entropy = 0.0\nsamples = 5\nvalue = [5, 0]"] ;
145 -> 153 ;
154 [label="meanCZ <= 1.5\nentropy = 0.5852\nsamples = 57\nvalue = [49, 8]"] ;
108 -> 154 ;
155 [label="entropy = 0.0\nsamples = 7\nvalue = [0, 7]"] ;
154 -> 155 ;
156 [label="FFTX <= -0.4844\nentropy = 0.1414\nsamples = 50\nvalue = [49, 1]"] ;
154 -> 156 ;
157 [label="entropy = 0.0\nsamples = 1\nvalue = [0, 1]"] ;
156 -> 157 ;
158 [label="entropy = 0.0\nsamples = 49\nvalue = [49, 0]"] ;
156 -> 158 ;
159 [label="maxZ <= 12.4811\nentropy = 0.6164\nsamples = 4625\nvalue = [3919, 706]"] ;
1 -> 159 ;
160 [label="maxY <= 11.7702\nentropy = 0.9785\nsamples = 1585\nvalue = [929, 656]"] ;
159 -> 160 ;
161 [label="Variance X <= 0.8186\nentropy = 0.9864\nsamples = 1516\nvalue = [862, 654]"] ;
160 -> 161 ;
162 [label="Variance Z <= 0.6408\nentropy = 0.9486\nsamples = 324\nvalue = [119, 205]"] ;
161 -> 162 ;
163 [label="maxZ <= 5.545\nentropy = 0.7351\nsamples = 179\nvalue = [37, 142]"] ;
162 -> 163 ;
164 [label="meanCY <= 4.5\nentropy = 0.9896\nsamples = 25\nvalue = [14, 11]"] ;
163 -> 164 ;
165 [label="medianZ <= 1.7955\nentropy = 0.5917\nsamples = 14\nvalue = [12, 2]"] ;
164 -> 165 ;
166 [label="entropy = 0.0\nsamples = 6\nvalue = [6, 0]"] ;
165 -> 166 ;
167 [label="maxY <= 1.682\nentropy = 0.8113\nsamples = 8\nvalue = [6, 2]"] ;
165 -> 167 ;
168 [label="entropy = 0.0\nsamples = 2\nvalue = [0, 2]"] ;
167 -> 168 ;
169 [label="entropy = 0.0\nsamples = 6\nvalue = [6, 0]"] ;
167 -> 169 ;
170 [label="meanCX <= 7.5\nentropy = 0.684\nsamples = 11\nvalue = [2, 9]"] ;
164 -> 170 ;
171 [label="entropy = 0.0\nsamples = 7\nvalue = [0, 7]"] ;
170 -> 171 ;
172 [label="meanCZ <= 4.0\nentropy = 1.0\nsamples = 4\nvalue = [2, 2]"] ;
170 -> 172 ;
173 [label="entropy = 0.0\nsamples = 2\nvalue = [0, 2]"] ;
172 -> 173 ;
174 [label="entropy = 0.0\nsamples = 2\nvalue = [2, 0]"] ;
172 -> 174 ;
175 [label="maxX <= -2.8701\nentropy = 0.6082\nsamples = 154\nvalue = [23, 131]"] ;
163 -> 175 ;
176 [label="mean Y <= -1.478\nentropy = 0.9544\nsamples = 8\nvalue = [5, 3]"] ;
175 -> 176 ;
177 [label="entropy = 0.0\nsamples = 4\nvalue = [4, 0]"] ;
176 -> 177 ;
178 [label="meanCZ <= 6.5\nentropy = 0.8113\nsamples = 4\nvalue = [1, 3]"] ;
176 -> 178 ;
179 [label="entropy = 0.0\nsamples = 3\nvalue = [0, 3]"] ;
178 -> 179 ;
180 [label="entropy = 0.0\nsamples = 1\nvalue = [1, 0]"] ;
178 -> 180 ;
181 [label="Variance Y <= 0.0756\nentropy = 0.5387\nsamples = 146\nvalue = [18, 128]"] ;
175 -> 181 ;
182 [label="entropy = 0.0\nsamples = 17\nvalue = [0, 17]"] ;
181 -> 182 ;
183 [label="maxZ <= 9.8529\nentropy = 0.583\nsamples = 129\nvalue = [18, 111]"] ;
181 -> 183 ;
184 [label="medianZ <= 8.9958\nentropy = 0.7219\nsamples = 75\nvalue = [15, 60]"] ;
183 -> 184 ;
185 [label="medianZ <= 8.8908\nentropy = 0.7612\nsamples = 68\nvalue = [15, 53]"] ;
184 -> 185 ;
186 [label="meanCY <= 1.5\nentropy = 0.6901\nsamples = 65\nvalue = [12, 53]"] ;
185 -> 186 ;
187 [label="entropy = 0.0\nsamples = 9\nvalue = [0, 9]"] ;
186 -> 187 ;
188 [label="mean X <= 7.4083\nentropy = 0.7496\nsamples = 56\nvalue = [12, 44]"] ;
186 -> 188 ;
189 [label="entropy <= -119.9405\nentropy = 0.6723\nsamples = 51\nvalue = [9, 42]"] ;
188 -> 189 ;
190 [label="mean Z <= 7.2577\nentropy = 0.4771\nsamples = 39\nvalue = [4, 35]"] ;
189 -> 190 ;
191 [label="entropy = 0.0\nsamples = 19\nvalue = [0, 19]"] ;
190 -> 191 ;
192 [label="magnitude <= 9.9468\nentropy = 0.7219\nsamples = 20\nvalue = [4, 16]"] ;
190 -> 192 ;
193 [label="entropy = 0.0\nsamples = 12\nvalue = [0, 12]"] ;
192 -> 193 ;
194 [label="Variance X <= 0.2918\nentropy = 1.0\nsamples = 8\nvalue = [4, 4]"] ;
192 -> 194 ;
195 [label="Variance Z <= 0.1249\nentropy = 0.7219\nsamples = 5\nvalue = [4, 1]"] ;
194 -> 195 ;
196 [label="magnitude <= 10.156\nentropy = 1.0\nsamples = 2\nvalue = [1, 1]"] ;
195 -> 196 ;
197 [label="entropy = 0.0\nsamples = 1\nvalue = [1, 0]"] ;
196 -> 197 ;
198 [label="entropy = 0.0\nsamples = 1\nvalue = [0, 1]"] ;
196 -> 198 ;
199 [label="entropy = 0.0\nsamples = 3\nvalue = [3, 0]"] ;
195 -> 199 ;
200 [label="entropy = 0.0\nsamples = 3\nvalue = [0, 3]"] ;
194 -> 200 ;
201 [label="maxY <= 7.457\nentropy = 0.9799\nsamples = 12\nvalue = [5, 7]"] ;
189 -> 201 ;
202 [label="mean Y <= 4.8603\nentropy = 0.8813\nsamples = 10\nvalue = [3, 7]"] ;
201 -> 202 ;
203 [label="magnitude <= 10.0973\nentropy = 0.971\nsamples = 5\nvalue = [3, 2]"] ;
202 -> 203 ;
204 [label="mean Z <= 7.1931\nentropy = 0.9183\nsamples = 3\nvalue = [1, 2]"] ;
203 -> 204 ;
205 [label="entropy = 0.0\nsamples = 2\nvalue = [0, 2]"] ;
204 -> 205 ;
206 [label="entropy = 0.0\nsamples = 1\nvalue = [1, 0]"] ;
204 -> 206 ;
207 [label="entropy = 0.0\nsamples = 2\nvalue = [2, 0]"] ;
203 -> 207 ;
208 [label="entropy = 0.0\nsamples = 5\nvalue = [0, 5]"] ;
202 -> 208 ;
209 [label="entropy = 0.0\nsamples = 2\nvalue = [2, 0]"] ;
201 -> 209 ;
210 [label="minZ <= 4.4564\nentropy = 0.971\nsamples = 5\nvalue = [3, 2]"] ;
188 -> 210 ;
211 [label="entropy = 0.0\nsamples = 2\nvalue = [0, 2]"] ;
210 -> 211 ;
212 [label="entropy = 0.0\nsamples = 3\nvalue = [3, 0]"] ;
210 -> 212 ;
213 [label="entropy = 0.0\nsamples = 3\nvalue = [3, 0]"] ;
185 -> 213 ;
214 [label="entropy = 0.0\nsamples = 7\nvalue = [0, 7]"] ;
184 -> 214 ;
215 [label="Variance Z <= 0.5989\nentropy = 0.3095\nsamples = 54\nvalue = [3, 51]"] ;
183 -> 215 ;
216 [label="magnitude <= 10.2034\nentropy = 0.1414\nsamples = 50\nvalue = [1, 49]"] ;
215 -> 216 ;
217 [label="entropy = 0.0\nsamples = 47\nvalue = [0, 47]"] ;
216 -> 217 ;
218 [label="meanCZ <= 3.5\nentropy = 0.9183\nsamples = 3\nvalue = [1, 2]"] ;
216 -> 218 ;
219 [label="entropy = 0.0\nsamples = 1\nvalue = [1, 0]"] ;
218 -> 219 ;
220 [label="entropy = 0.0\nsamples = 2\nvalue = [0, 2]"] ;
218 -> 220 ;
221 [label="meanCY <= 3.5\nentropy = 1.0\nsamples = 4\nvalue = [2, 2]"] ;
215 -> 221 ;
222 [label="entropy = 0.0\nsamples = 2\nvalue = [2, 0]"] ;
221 -> 222 ;
223 [label="entropy = 0.0\nsamples = 2\nvalue = [0, 2]"] ;
221 -> 223 ;
224 [label="entropy <= -114.5133\nentropy = 0.9876\nsamples = 145\nvalue = [82, 63]"] ;
162 -> 224 ;
225 [label="Variance Z <= 3.7797\nentropy = 0.9787\nsamples = 140\nvalue = [82, 58]"] ;
224 -> 225 ;
226 [label="medianY <= 7.0575\nentropy = 0.9905\nsamples = 131\nvalue = [73, 58]"] ;
225 -> 226 ;
227 [label="Variance Y <= 3.108\nentropy = 0.9764\nsamples = 122\nvalue = [72, 50]"] ;
226 -> 227 ;
228 [label="Variance X <= 0.6969\nentropy = 0.9502\nsamples = 111\nvalue = [70, 41]"] ;
227 -> 228 ;
229 [label="maxY <= 8.1457\nentropy = 0.8841\nsamples = 86\nvalue = [60, 26]"] ;
228 -> 229 ;
230 [label="minX <= 2.8823\nentropy = 0.9226\nsamples = 77\nvalue = [51, 26]"] ;
229 -> 230 ;
231 [label="magnitude <= 10.4728\nentropy = 0.8238\nsamples = 62\nvalue = [46, 16]"] ;
230 -> 231 ;
232 [label="maxX <= 2.5153\nentropy = 0.8767\nsamples = 54\nvalue = [38, 16]"] ;
231 -> 232 ;
233 [label="mean X <= 0.822\nentropy = 0.9544\nsamples = 40\nvalue = [25, 15]"] ;
232 -> 233 ;
234 [label="Variance X <= 0.5571\nentropy = 0.9268\nsamples = 38\nvalue = [25, 13]"] ;
233 -> 234 ;
235 [label="zeroX <= 3.5\nentropy = 0.9986\nsamples = 23\nvalue = [12, 11]"] ;
234 -> 235 ;
236 [label="medianZ <= 9.503\nentropy = 0.971\nsamples = 20\nvalue = [12, 8]"] ;
235 -> 236 ;
237 [label="medianY <= 2.0203\nentropy = 0.9975\nsamples = 17\nvalue = [9, 8]"] ;
236 -> 237 ;
238 [label="Variance Z <= 2.7994\nentropy = 0.8905\nsamples = 13\nvalue = [9, 4]"] ;
237 -> 238 ;
239 [label="entropy <= -150.2776\nentropy = 0.8113\nsamples = 12\nvalue = [9, 3]"] ;
238 -> 239 ;
240 [label="entropy = 0.0\nsamples = 1\nvalue = [0, 1]"] ;
239 -> 240 ;
241 [label="medianZ <= 7.1341\nentropy = 0.684\nsamples = 11\nvalue = [9, 2]"] ;
239 -> 241 ;
242 [label="mean Z <= 5.8883\nentropy = 0.971\nsamples = 5\nvalue = [3, 2]"] ;
241 -> 242 ;
243 [label="entropy = 0.0\nsamples = 3\nvalue = [3, 0]"] ;
242 -> 243 ;
244 [label="entropy = 0.0\nsamples = 2\nvalue = [0, 2]"] ;
242 -> 244 ;
245 [label="entropy = 0.0\nsamples = 6\nvalue = [6, 0]"] ;
241 -> 245 ;
246 [label="entropy = 0.0\nsamples = 1\nvalue = [0, 1]"] ;
238 -> 246 ;
247 [label="entropy = 0.0\nsamples = 4\nvalue = [0, 4]"] ;
237 -> 247 ;
248 [label="entropy = 0.0\nsamples = 3\nvalue = [3, 0]"] ;
236 -> 248 ;
249 [label="entropy = 0.0\nsamples = 3\nvalue = [0, 3]"] ;
235 -> 249 ;
250 [label="minX <= -0.7574\nentropy = 0.5665\nsamples = 15\nvalue = [13, 2]"] ;
234 -> 250 ;
251 [label="maxY <= 6.1359\nentropy = 0.3712\nsamples = 14\nvalue = [13, 1]"] ;
250 -> 251 ;
252 [label="entropy = 0.0\nsamples = 13\nvalue = [13, 0]"] ;
251 -> 252 ;
253 [label="entropy = 0.0\nsamples = 1\nvalue = [0, 1]"] ;
251 -> 253 ;
254 [label="entropy = 0.0\nsamples = 1\nvalue = [0, 1]"] ;
250 -> 254 ;
255 [label="entropy = 0.0\nsamples = 2\nvalue = [0, 2]"] ;
233 -> 255 ;
256 [label="minZ <= 5.3303\nentropy = 0.3712\nsamples = 14\nvalue = [13, 1]"] ;
232 -> 256 ;
257 [label="medianX <= 2.8174\nentropy = 1.0\nsamples = 2\nvalue = [1, 1]"] ;
256 -> 257 ;
258 [label="entropy = 0.0\nsamples = 1\nvalue = [0, 1]"] ;
257 -> 258 ;
259 [label="entropy = 0.0\nsamples = 1\nvalue = [1, 0]"] ;
257 -> 259 ;
260 [label="entropy = 0.0\nsamples = 12\nvalue = [12, 0]"] ;
256 -> 260 ;
261 [label="entropy = 0.0\nsamples = 8\nvalue = [8, 0]"] ;
231 -> 261 ;
262 [label="medianY <= -0.4888\nentropy = 0.9183\nsamples = 15\nvalue = [5, 10]"] ;
230 -> 262 ;
263 [label="Variance Y <= 1.1725\nentropy = 0.9183\nsamples = 6\nvalue = [4, 2]"] ;
262 -> 263 ;
264 [label="entropy = 0.0\nsamples = 4\nvalue = [4, 0]"] ;
263 -> 264 ;
265 [label="entropy = 0.0\nsamples = 2\nvalue = [0, 2]"] ;
263 -> 265 ;
266 [label="magnitude <= 9.7612\nentropy = 0.5033\nsamples = 9\nvalue = [1, 8]"] ;
262 -> 266 ;
267 [label="mean Z <= 5.9041\nentropy = 0.9183\nsamples = 3\nvalue = [1, 2]"] ;
266 -> 267 ;
268 [label="entropy = 0.0\nsamples = 1\nvalue = [0, 1]"] ;
267 -> 268 ;
269 [label="minZ <= 4.9536\nentropy = 1.0\nsamples = 2\nvalue = [1, 1]"] ;
267 -> 269 ;
270 [label="entropy = 0.0\nsamples = 1\nvalue = [1, 0]"] ;
269 -> 270 ;
271 [label="entropy = 0.0\nsamples = 1\nvalue = [0, 1]"] ;
269 -> 271 ;
272 [label="entropy = 0.0\nsamples = 6\nvalue = [0, 6]"] ;
266 -> 272 ;
273 [label="entropy = 0.0\nsamples = 9\nvalue = [9, 0]"] ;
229 -> 273 ;
274 [label="Variance Z <= 1.4235\nentropy = 0.971\nsamples = 25\nvalue = [10, 15]"] ;
228 -> 274 ;
275 [label="Variance X <= 0.7364\nentropy = 0.7219\nsamples = 15\nvalue = [3, 12]"] ;
274 -> 275 ;
276 [label="entropy = 0.0\nsamples = 8\nvalue = [0, 8]"] ;
275 -> 276 ;
277 [label="maxY <= 4.4062\nentropy = 0.9852\nsamples = 7\nvalue = [3, 4]"] ;
275 -> 277 ;
278 [label="entropy = 0.0\nsamples = 4\nvalue = [0, 4]"] ;
277 -> 278 ;
279 [label="entropy = 0.0\nsamples = 3\nvalue = [3, 0]"] ;
277 -> 279 ;
280 [label="mean Y <= -2.5406\nentropy = 0.8813\nsamples = 10\nvalue = [7, 3]"] ;
274 -> 280 ;
281 [label="entropy = 0.0\nsamples = 2\nvalue = [0, 2]"] ;
280 -> 281 ;
282 [label="maxZ <= 11.3081\nentropy = 0.5436\nsamples = 8\nvalue = [7, 1]"] ;
280 -> 282 ;
283 [label="meanCY <= 5.0\nentropy = 0.9183\nsamples = 3\nvalue = [2, 1]"] ;
282 -> 283 ;
284 [label="entropy = 0.0\nsamples = 2\nvalue = [2, 0]"] ;
283 -> 284 ;
285 [label="entropy = 0.0\nsamples = 1\nvalue = [0, 1]"] ;
283 -> 285 ;
286 [label="entropy = 0.0\nsamples = 5\nvalue = [5, 0]"] ;
282 -> 286 ;
287 [label="medianY <= 2.2637\nentropy = 0.684\nsamples = 11\nvalue = [2, 9]"] ;
227 -> 287 ;
288 [label="entropy = 0.0\nsamples = 7\nvalue = [0, 7]"] ;
287 -> 288 ;
289 [label="maxZ <= 10.4071\nentropy = 1.0\nsamples = 4\nvalue = [2, 2]"] ;
287 -> 289 ;
290 [label="entropy = 0.0\nsamples = 2\nvalue = [0, 2]"] ;
289 -> 290 ;
291 [label="entropy = 0.0\nsamples = 2\nvalue = [2, 0]"] ;
289 -> 291 ;
292 [label="magnitude <= 10.5303\nentropy = 0.5033\nsamples = 9\nvalue = [1, 8]"] ;
226 -> 292 ;
293 [label="entropy = 0.0\nsamples = 6\nvalue = [0, 6]"] ;
292 -> 293 ;
294 [label="Variance Y <= 1.4124\nentropy = 0.9183\nsamples = 3\nvalue = [1, 2]"] ;
292 -> 294 ;
295 [label="entropy = 0.0\nsamples = 2\nvalue = [0, 2]"] ;
294 -> 295 ;
296 [label="entropy = 0.0\nsamples = 1\nvalue = [1, 0]"] ;
294 -> 296 ;
297 [label="entropy = 0.0\nsamples = 9\nvalue = [9, 0]"] ;
225 -> 297 ;
298 [label="entropy = 0.0\nsamples = 5\nvalue = [0, 5]"] ;
224 -> 298 ;
299 [label="FFTX <= -0.4844\nentropy = 0.9557\nsamples = 1192\nvalue = [743, 449]"] ;
161 -> 299 ;
300 [label="magnitude <= 10.732\nentropy = 0.7019\nsamples = 163\nvalue = [31, 132]"] ;
299 -> 300 ;
301 [label="maxZ <= 7.8636\nentropy = 0.6232\nsamples = 148\nvalue = [23, 125]"] ;
300 -> 301 ;
302 [label="medianY <= 0.7577\nentropy = 0.3138\nsamples = 106\nvalue = [6, 100]"] ;
301 -> 302 ;
303 [label="medianY <= -2.1327\nentropy = 0.0914\nsamples = 86\nvalue = [1, 85]"] ;
302 -> 303 ;
304 [label="Variance Y <= 11.4051\nentropy = 0.5436\nsamples = 8\nvalue = [1, 7]"] ;
303 -> 304 ;
305 [label="entropy = 0.0\nsamples = 5\nvalue = [0, 5]"] ;
304 -> 305 ;
306 [label="Variance Z <= 1.3798\nentropy = 0.9183\nsamples = 3\nvalue = [1, 2]"] ;
304 -> 306 ;
307 [label="entropy = 0.0\nsamples = 2\nvalue = [0, 2]"] ;
306 -> 307 ;
308 [label="entropy = 0.0\nsamples = 1\nvalue = [1, 0]"] ;
306 -> 308 ;
309 [label="entropy = 0.0\nsamples = 78\nvalue = [0, 78]"] ;
303 -> 309 ;
310 [label="medianZ <= 2.8859\nentropy = 0.8113\nsamples = 20\nvalue = [5, 15]"] ;
302 -> 310 ;
311 [label="magnitude <= 10.1658\nentropy = 0.65\nsamples = 18\nvalue = [3, 15]"] ;
310 -> 311 ;
312 [label="maxY <= 5.0202\nentropy = 0.8813\nsamples = 10\nvalue = [3, 7]"] ;
311 -> 312 ;
313 [label="Variance X <= 87.4136\nentropy = 0.5436\nsamples = 8\nvalue = [1, 7]"] ;
312 -> 313 ;
314 [label="entropy = 0.0\nsamples = 7\nvalue = [0, 7]"] ;
313 -> 314 ;
315 [label="entropy = 0.0\nsamples = 1\nvalue = [1, 0]"] ;
313 -> 315 ;
316 [label="entropy = 0.0\nsamples = 2\nvalue = [2, 0]"] ;
312 -> 316 ;
317 [label="entropy = 0.0\nsamples = 8\nvalue = [0, 8]"] ;
311 -> 317 ;
318 [label="entropy = 0.0\nsamples = 2\nvalue = [2, 0]"] ;
310 -> 318 ;
319 [label="medianZ <= 3.0921\nentropy = 0.9737\nsamples = 42\nvalue = [17, 25]"] ;
301 -> 319 ;
320 [label="mean Y <= -0.4111\nentropy = 0.3228\nsamples = 17\nvalue = [1, 16]"] ;
319 -> 320 ;
321 [label="medianX <= -1.6142\nentropy = 0.7219\nsamples = 5\nvalue = [1, 4]"] ;
320 -> 321 ;
322 [label="entropy = 0.0\nsamples = 1\nvalue = [1, 0]"] ;
321 -> 322 ;
323 [label="entropy = 0.0\nsamples = 4\nvalue = [0, 4]"] ;
321 -> 323 ;
324 [label="entropy = 0.0\nsamples = 12\nvalue = [0, 12]"] ;
320 -> 324 ;
325 [label="medianY <= 0.2829\nentropy = 0.9427\nsamples = 25\nvalue = [16, 9]"] ;
319 -> 325 ;
326 [label="maxZ <= 8.7342\nentropy = 0.998\nsamples = 19\nvalue = [10, 9]"] ;
325 -> 326 ;
327 [label="minX <= -15.2968\nentropy = 0.65\nsamples = 6\nvalue = [5, 1]"] ;
326 -> 327 ;
328 [label="entropy = 0.0\nsamples = 4\nvalue = [4, 0]"] ;
327 -> 328 ;
329 [label="magnitude <= 10.0353\nentropy = 1.0\nsamples = 2\nvalue = [1, 1]"] ;
327 -> 329 ;
330 [label="entropy = 0.0\nsamples = 1\nvalue = [1, 0]"] ;
329 -> 330 ;
331 [label="entropy = 0.0\nsamples = 1\nvalue = [0, 1]"] ;
329 -> 331 ;
332 [label="maxY <= 3.7294\nentropy = 0.9612\nsamples = 13\nvalue = [5, 8]"] ;
326 -> 332 ;
333 [label="mean Y <= -0.3469\nentropy = 0.9544\nsamples = 8\nvalue = [5, 3]"] ;
332 -> 333 ;
334 [label="minZ <= 1.0422\nentropy = 0.65\nsamples = 6\nvalue = [5, 1]"] ;
333 -> 334 ;
335 [label="entropy = 0.0\nsamples = 1\nvalue = [0, 1]"] ;
334 -> 335 ;
336 [label="entropy = 0.0\nsamples = 5\nvalue = [5, 0]"] ;
334 -> 336 ;
337 [label="entropy = 0.0\nsamples = 2\nvalue = [0, 2]"] ;
333 -> 337 ;
338 [label="entropy = 0.0\nsamples = 5\nvalue = [0, 5]"] ;
332 -> 338 ;
339 [label="entropy = 0.0\nsamples = 6\nvalue = [6, 0]"] ;
325 -> 339 ;
340 [label="Variance Y <= 8.9866\nentropy = 0.9968\nsamples = 15\nvalue = [8, 7]"] ;
300 -> 340 ;
341 [label="mean X <= 0.1697\nentropy = 0.5436\nsamples = 8\nvalue = [1, 7]"] ;
340 -> 341 ;
342 [label="entropy = 0.0\nsamples = 7\nvalue = [0, 7]"] ;
341 -> 342 ;
343 [label="entropy = 0.0\nsamples = 1\nvalue = [1, 0]"] ;
341 -> 343 ;
344 [label="entropy = 0.0\nsamples = 7\nvalue = [7, 0]"] ;
340 -> 344 ;
345 [label="FFTX <= -0.4531\nentropy = 0.8909\nsamples = 1029\nvalue = [712, 317]"] ;
299 -> 345 ;
346 [label="meanCX <= 14.5\nentropy = 0.2254\nsamples = 110\nvalue = [106, 4]"] ;
345 -> 346 ;
347 [label="maxY <= 6.1156\nentropy = 0.9183\nsamples = 6\nvalue = [2, 4]"] ;
346 -> 347 ;
348 [label="entropy = 0.0\nsamples = 3\nvalue = [0, 3]"] ;
347 -> 348 ;
349 [label="minX <= -15.2821\nentropy = 0.9183\nsamples = 3\nvalue = [2, 1]"] ;
347 -> 349 ;
350 [label="entropy = 0.0\nsamples = 2\nvalue = [2, 0]"] ;
349 -> 350 ;
351 [label="entropy = 0.0\nsamples = 1\nvalue = [0, 1]"] ;
349 -> 351 ;
352 [label="entropy = 0.0\nsamples = 104\nvalue = [104, 0]"] ;
346 -> 352 ;
353 [label="meanCX <= 1.5\nentropy = 0.9254\nsamples = 919\nvalue = [606, 313]"] ;
345 -> 353 ;
354 [label="minZ <= 4.8778\nentropy = 0.8942\nsamples = 119\nvalue = [37, 82]"] ;
353 -> 354 ;
355 [label="minX <= -11.1329\nentropy = 0.99\nsamples = 34\nvalue = [19, 15]"] ;
354 -> 355 ;
356 [label="entropy = 0.0\nsamples = 6\nvalue = [6, 0]"] ;
355 -> 356 ;
357 [label="magnitude <= 10.0581\nentropy = 0.9963\nsamples = 28\nvalue = [13, 15]"] ;
355 -> 357 ;
358 [label="medianY <= -2.5094\nentropy = 0.9183\nsamples = 15\nvalue = [10, 5]"] ;
357 -> 358 ;
359 [label="entropy = 0.0\nsamples = 4\nvalue = [4, 0]"] ;
358 -> 359 ;
360 [label="minZ <= 3.0771\nentropy = 0.994\nsamples = 11\nvalue = [6, 5]"] ;
358 -> 360 ;
361 [label="mean X <= -2.4172\nentropy = 0.8113\nsamples = 8\nvalue = [6, 2]"] ;
360 -> 361 ;
362 [label="maxY <= 8.7794\nentropy = 0.9183\nsamples = 3\nvalue = [1, 2]"] ;
361 -> 362 ;
363 [label="entropy = 0.0\nsamples = 1\nvalue = [1, 0]"] ;
362 -> 363 ;
364 [label="entropy = 0.0\nsamples = 2\nvalue = [0, 2]"] ;
362 -> 364 ;
365 [label="entropy = 0.0\nsamples = 5\nvalue = [5, 0]"] ;
361 -> 365 ;
366 [label="entropy = 0.0\nsamples = 3\nvalue = [0, 3]"] ;
360 -> 366 ;
367 [label="mean X <= 1.9782\nentropy = 0.7793\nsamples = 13\nvalue = [3, 10]"] ;
357 -> 367 ;
368 [label="Variance Y <= 3.3789\nentropy = 0.9852\nsamples = 7\nvalue = [3, 4]"] ;
367 -> 368 ;
369 [label="entropy = 0.0\nsamples = 4\nvalue = [0, 4]"] ;
368 -> 369 ;
370 [label="entropy = 0.0\nsamples = 3\nvalue = [3, 0]"] ;
368 -> 370 ;
371 [label="entropy = 0.0\nsamples = 6\nvalue = [0, 6]"] ;
367 -> 371 ;
372 [label="maxZ <= 11.8009\nentropy = 0.7448\nsamples = 85\nvalue = [18, 67]"] ;
354 -> 372 ;
373 [label="maxZ <= 9.5473\nentropy = 0.5965\nsamples = 76\nvalue = [11, 65]"] ;
372 -> 373 ;
374 [label="entropy = 0.0\nsamples = 19\nvalue = [0, 19]"] ;
373 -> 374 ;
375 [label="mean X <= 4.5207\nentropy = 0.7077\nsamples = 57\nvalue = [11, 46]"] ;
373 -> 375 ;
376 [label="zeroX <= 3.5\nentropy = 0.57\nsamples = 52\nvalue = [7, 45]"] ;
375 -> 376 ;
377 [label="FFTY <= -0.0781\nentropy = 0.469\nsamples = 50\nvalue = [5, 45]"] ;
376 -> 377 ;
378 [label="medianY <= -0.2456\nentropy = 0.9183\nsamples = 3\nvalue = [2, 1]"] ;
377 -> 378 ;
379 [label="entropy = 0.0\nsamples = 1\nvalue = [1, 0]"] ;
378 -> 379 ;
380 [label="Variance Z <= 0.6406\nentropy = 1.0\nsamples = 2\nvalue = [1, 1]"] ;
378 -> 380 ;
381 [label="entropy = 0.0\nsamples = 1\nvalue = [0, 1]"] ;
380 -> 381 ;
382 [label="entropy = 0.0\nsamples = 1\nvalue = [1, 0]"] ;
380 -> 382 ;
383 [label="Variance X <= 11.3224\nentropy = 0.3425\nsamples = 47\nvalue = [3, 44]"] ;
377 -> 383 ;
384 [label="entropy = 0.0\nsamples = 43\nvalue = [0, 43]"] ;
383 -> 384 ;
385 [label="Variance Y <= 7.1706\nentropy = 0.8113\nsamples = 4\nvalue = [3, 1]"] ;
383 -> 385 ;
386 [label="entropy = 0.0\nsamples = 3\nvalue = [3, 0]"] ;
385 -> 386 ;
387 [label="entropy = 0.0\nsamples = 1\nvalue = [0, 1]"] ;
385 -> 387 ;
388 [label="entropy = 0.0\nsamples = 2\nvalue = [2, 0]"] ;
376 -> 388 ;
389 [label="magnitude <= 10.3969\nentropy = 0.7219\nsamples = 5\nvalue = [4, 1]"] ;
375 -> 389 ;
390 [label="entropy = 0.0\nsamples = 3\nvalue = [3, 0]"] ;
389 -> 390 ;
391 [label="entropy <= -119.8471\nentropy = 1.0\nsamples = 2\nvalue = [1, 1]"] ;
389 -> 391 ;
392 [label="entropy = 0.0\nsamples = 1\nvalue = [1, 0]"] ;
391 -> 392 ;
393 [label="entropy = 0.0\nsamples = 1\nvalue = [0, 1]"] ;
391 -> 393 ;
394 [label="mean Y <= 0.8624\nentropy = 0.7642\nsamples = 9\nvalue = [7, 2]"] ;
372 -> 394 ;
395 [label="minX <= -6.2682\nentropy = 1.0\nsamples = 4\nvalue = [2, 2]"] ;
394 -> 395 ;
396 [label="entropy = 0.0\nsamples = 2\nvalue = [2, 0]"] ;
395 -> 396 ;
397 [label="entropy = 0.0\nsamples = 2\nvalue = [0, 2]"] ;
395 -> 397 ;
398 [label="entropy = 0.0\nsamples = 5\nvalue = [5, 0]"] ;
394 -> 398 ;
399 [label="Variance Z <= 0.6841\nentropy = 0.8671\nsamples = 800\nvalue = [569, 231]"] ;
353 -> 399 ;
400 [label="magnitude <= 10.3985\nentropy = 0.9999\nsamples = 87\nvalue = [43, 44]"] ;
399 -> 400 ;
401 [label="minZ <= 6.2544\nentropy = 0.9693\nsamples = 73\nvalue = [29, 44]"] ;
400 -> 401 ;
402 [label="maxY <= 3.7601\nentropy = 0.9183\nsamples = 36\nvalue = [24, 12]"] ;
401 -> 402 ;
403 [label="magnitude <= 9.8891\nentropy = 0.9986\nsamples = 23\nvalue = [12, 11]"] ;
402 -> 403 ;
404 [label="FFTY <= -0.0313\nentropy = 0.9403\nsamples = 14\nvalue = [5, 9]"] ;
403 -> 404 ;
405 [label="entropy = 0.0\nsamples = 3\nvalue = [0, 3]"] ;
404 -> 405 ;
406 [label="medianZ <= 1.3422\nentropy = 0.994\nsamples = 11\nvalue = [5, 6]"] ;
404 -> 406 ;
407 [label="entropy = 0.0\nsamples = 2\nvalue = [0, 2]"] ;
406 -> 407 ;
408 [label="magnitude <= 9.5297\nentropy = 0.9911\nsamples = 9\nvalue = [5, 4]"] ;
406 -> 408 ;
409 [label="medianX <= 2.5324\nentropy = 0.9183\nsamples = 6\nvalue = [2, 4]"] ;
408 -> 409 ;
410 [label="entropy = 0.0\nsamples = 4\nvalue = [0, 4]"] ;
409 -> 410 ;
411 [label="entropy = 0.0\nsamples = 2\nvalue = [2, 0]"] ;
409 -> 411 ;
412 [label="entropy = 0.0\nsamples = 3\nvalue = [3, 0]"] ;
408 -> 412 ;
413 [label="mean Y <= 0.7118\nentropy = 0.7642\nsamples = 9\nvalue = [7, 2]"] ;
403 -> 413 ;
414 [label="magnitude <= 10.3784\nentropy = 0.5436\nsamples = 8\nvalue = [7, 1]"] ;
413 -> 414 ;
415 [label="entropy = 0.0\nsamples = 7\nvalue = [7, 0]"] ;
414 -> 415 ;
416 [label="entropy = 0.0\nsamples = 1\nvalue = [0, 1]"] ;
414 -> 416 ;
417 [label="entropy = 0.0\nsamples = 1\nvalue = [0, 1]"] ;
413 -> 417 ;
418 [label="Variance Y <= 0.5632\nentropy = 0.3912\nsamples = 13\nvalue = [12, 1]"] ;
402 -> 418 ;
419 [label="meanCZ <= 5.0\nentropy = 1.0\nsamples = 2\nvalue = [1, 1]"] ;
418 -> 419 ;
420 [label="entropy = 0.0\nsamples = 1\nvalue = [1, 0]"] ;
419 -> 420 ;
421 [label="entropy = 0.0\nsamples = 1\nvalue = [0, 1]"] ;
419 -> 421 ;
422 [label="entropy = 0.0\nsamples = 11\nvalue = [11, 0]"] ;
418 -> 422 ;
423 [label="entropy <= -132.6361\nentropy = 0.5714\nsamples = 37\nvalue = [5, 32]"] ;
401 -> 423 ;
424 [label="entropy <= -138.961\nentropy = 0.8113\nsamples = 20\nvalue = [5, 15]"] ;
423 -> 424 ;
425 [label="minX <= -0.8143\nentropy = 0.3712\nsamples = 14\nvalue = [1, 13]"] ;
424 -> 425 ;
426 [label="entropy = 0.0\nsamples = 13\nvalue = [0, 13]"] ;
425 -> 426 ;
427 [label="entropy = 0.0\nsamples = 1\nvalue = [1, 0]"] ;
425 -> 427 ;
428 [label="zeroY <= 0.5\nentropy = 0.9183\nsamples = 6\nvalue = [4, 2]"] ;
424 -> 428 ;
429 [label="entropy = 0.0\nsamples = 2\nvalue = [0, 2]"] ;
428 -> 429 ;
430 [label="entropy = 0.0\nsamples = 4\nvalue = [4, 0]"] ;
428 -> 430 ;
431 [label="entropy = 0.0\nsamples = 17\nvalue = [0, 17]"] ;
423 -> 431 ;
432 [label="entropy = 0.0\nsamples = 14\nvalue = [14, 0]"] ;
400 -> 432 ;
433 [label="FFTY <= 0.4219\nentropy = 0.8302\nsamples = 713\nvalue = [526, 187]"] ;
399 -> 433 ;
434 [label="maxX <= 3.1573\nentropy = 0.7569\nsamples = 614\nvalue = [480, 134]"] ;
433 -> 434 ;
435 [label="minX <= -10.8101\nentropy = 0.4989\nsamples = 228\nvalue = [203, 25]"] ;
434 -> 435 ;
436 [label="maxY <= 7.7345\nentropy = 0.135\nsamples = 53\nvalue = [52, 1]"] ;
435 -> 436 ;
437 [label="entropy = 0.0\nsamples = 50\nvalue = [50, 0]"] ;
436 -> 437 ;
438 [label="zeroY <= 0.5\nentropy = 0.9183\nsamples = 3\nvalue = [2, 1]"] ;
436 -> 438 ;
439 [label="entropy = 0.0\nsamples = 2\nvalue = [2, 0]"] ;
438 -> 439 ;
440 [label="entropy = 0.0\nsamples = 1\nvalue = [0, 1]"] ;
438 -> 440 ;
441 [label="entropy <= -142.8909\nentropy = 0.5767\nsamples = 175\nvalue = [151, 24]"] ;
435 -> 441 ;
442 [label="entropy = 0.0\nsamples = 29\nvalue = [29, 0]"] ;
441 -> 442 ;
443 [label="entropy <= -142.8549\nentropy = 0.6447\nsamples = 146\nvalue = [122, 24]"] ;
441 -> 443 ;
444 [label="entropy = 0.0\nsamples = 1\nvalue = [0, 1]"] ;
443 -> 444 ;
445 [label="medianY <= 1.185\nentropy = 0.631\nsamples = 145\nvalue = [122, 23]"] ;
443 -> 445 ;
446 [label="medianX <= -7.9629\nentropy = 0.4426\nsamples = 98\nvalue = [89, 9]"] ;
445 -> 446 ;
447 [label="entropy = 0.0\nsamples = 2\nvalue = [0, 2]"] ;
446 -> 447 ;
448 [label="medianY <= -0.7658\nentropy = 0.3767\nsamples = 96\nvalue = [89, 7]"] ;
446 -> 448 ;
449 [label="Variance X <= 0.9465\nentropy = 0.5436\nsamples = 48\nvalue = [42, 6]"] ;
448 -> 449 ;
450 [label="Variance X <= 0.917\nentropy = 0.9183\nsamples = 3\nvalue = [1, 2]"] ;
449 -> 450 ;
451 [label="entropy = 0.0\nsamples = 1\nvalue = [0, 1]"] ;
450 -> 451 ;
452 [label="Variance Z <= 1.53\nentropy = 1.0\nsamples = 2\nvalue = [1, 1]"] ;
450 -> 452 ;
453 [label="entropy = 0.0\nsamples = 1\nvalue = [0, 1]"] ;
452 -> 453 ;
454 [label="entropy = 0.0\nsamples = 1\nvalue = [1, 0]"] ;
452 -> 454 ;
455 [label="Variance Y <= 1.5376\nentropy = 0.4328\nsamples = 45\nvalue = [41, 4]"] ;
449 -> 455 ;
456 [label="magnitude <= 9.8419\nentropy = 0.8454\nsamples = 11\nvalue = [8, 3]"] ;
455 -> 456 ;
457 [label="mean X <= -2.1501\nentropy = 0.8113\nsamples = 4\nvalue = [1, 3]"] ;
456 -> 457 ;
458 [label="entropy = 0.0\nsamples = 2\nvalue = [0, 2]"] ;
457 -> 458 ;
459 [label="maxX <= 1.9566\nentropy = 1.0\nsamples = 2\nvalue = [1, 1]"] ;
457 -> 459 ;
460 [label="entropy = 0.0\nsamples = 1\nvalue = [1, 0]"] ;
459 -> 460 ;
461 [label="entropy = 0.0\nsamples = 1\nvalue = [0, 1]"] ;
459 -> 461 ;
462 [label="entropy = 0.0\nsamples = 7\nvalue = [7, 0]"] ;
456 -> 462 ;
463 [label="maxY <= -0.5311\nentropy = 0.1914\nsamples = 34\nvalue = [33, 1]"] ;
455 -> 463 ;
464 [label="entropy = 0.0\nsamples = 25\nvalue = [25, 0]"] ;
463 -> 464 ;
465 [label="FFTX <= 0.2344\nentropy = 0.5033\nsamples = 9\nvalue = [8, 1]"] ;
463 -> 465 ;
466 [label="entropy = 0.0\nsamples = 8\nvalue = [8, 0]"] ;
465 -> 466 ;
467 [label="entropy = 0.0\nsamples = 1\nvalue = [0, 1]"] ;
465 -> 467 ;
468 [label="meanCZ <= 8.5\nentropy = 0.1461\nsamples = 48\nvalue = [47, 1]"] ;
448 -> 468 ;
469 [label="entropy = 0.0\nsamples = 44\nvalue = [44, 0]"] ;
468 -> 469 ;
470 [label="medianX <= -0.5112\nentropy = 0.8113\nsamples = 4\nvalue = [3, 1]"] ;
468 -> 470 ;
471 [label="entropy = 0.0\nsamples = 2\nvalue = [2, 0]"] ;
470 -> 471 ;
472 [label="minZ <= 7.4676\nentropy = 1.0\nsamples = 2\nvalue = [1, 1]"] ;
470 -> 472 ;
473 [label="entropy = 0.0\nsamples = 1\nvalue = [1, 0]"] ;
472 -> 473 ;
474 [label="entropy = 0.0\nsamples = 1\nvalue = [0, 1]"] ;
472 -> 474 ;
475 [label="mean X <= 0.4254\nentropy = 0.8787\nsamples = 47\nvalue = [33, 14]"] ;
445 -> 475 ;
476 [label="medianX <= -0.9394\nentropy = 0.9262\nsamples = 41\nvalue = [27, 14]"] ;
475 -> 476 ;
477 [label="entropy <= -136.2396\nentropy = 0.799\nsamples = 33\nvalue = [25, 8]"] ;
476 -> 477 ;
478 [label="entropy = 0.0\nsamples = 4\nvalue = [4, 0]"] ;
477 -> 478 ;
479 [label="minY <= -1.031\nentropy = 0.8498\nsamples = 29\nvalue = [21, 8]"] ;
477 -> 479 ;
480 [label="entropy = 0.0\nsamples = 5\nvalue = [5, 0]"] ;
479 -> 480 ;
481 [label="Variance Z <= 2.0268\nentropy = 0.9183\nsamples = 24\nvalue = [16, 8]"] ;
479 -> 481 ;
482 [label="medianY <= 5.8487\nentropy = 0.9544\nsamples = 8\nvalue = [3, 5]"] ;
481 -> 482 ;
483 [label="medianX <= -2.2592\nentropy = 0.65\nsamples = 6\nvalue = [1, 5]"] ;
482 -> 483 ;
484 [label="entropy = 0.0\nsamples = 4\nvalue = [0, 4]"] ;
483 -> 484 ;
485 [label="mean Y <= 3.0873\nentropy = 1.0\nsamples = 2\nvalue = [1, 1]"] ;
483 -> 485 ;
486 [label="entropy = 0.0\nsamples = 1\nvalue = [1, 0]"] ;
485 -> 486 ;
487 [label="entropy = 0.0\nsamples = 1\nvalue = [0, 1]"] ;
485 -> 487 ;
488 [label="entropy = 0.0\nsamples = 2\nvalue = [2, 0]"] ;
482 -> 488 ;
489 [label="medianZ <= 4.9194\nentropy = 0.6962\nsamples = 16\nvalue = [13, 3]"] ;
481 -> 489 ;
490 [label="Variance Y <= 2.3332\nentropy = 0.9183\nsamples = 3\nvalue = [1, 2]"] ;
489 -> 490 ;
491 [label="entropy = 0.0\nsamples = 1\nvalue = [1, 0]"] ;
490 -> 491 ;
492 [label="entropy = 0.0\nsamples = 2\nvalue = [0, 2]"] ;
490 -> 492 ;
493 [label="meanCY <= 2.5\nentropy = 0.3912\nsamples = 13\nvalue = [12, 1]"] ;
489 -> 493 ;
494 [label="maxY <= 6.4101\nentropy = 0.9183\nsamples = 3\nvalue = [2, 1]"] ;
493 -> 494 ;
495 [label="entropy = 0.0\nsamples = 1\nvalue = [0, 1]"] ;
494 -> 495 ;
496 [label="entropy = 0.0\nsamples = 2\nvalue = [2, 0]"] ;
494 -> 496 ;
497 [label="entropy = 0.0\nsamples = 10\nvalue = [10, 0]"] ;
493 -> 497 ;
498 [label="FFTX <= 0.0\nentropy = 0.8113\nsamples = 8\nvalue = [2, 6]"] ;
476 -> 498 ;
499 [label="Variance X <= 2.3292\nentropy = 1.0\nsamples = 4\nvalue = [2, 2]"] ;
498 -> 499 ;
500 [label="entropy = 0.0\nsamples = 2\nvalue = [0, 2]"] ;
499 -> 500 ;
501 [label="entropy = 0.0\nsamples = 2\nvalue = [2, 0]"] ;
499 -> 501 ;
502 [label="entropy = 0.0\nsamples = 4\nvalue = [0, 4]"] ;
498 -> 502 ;
503 [label="entropy = 0.0\nsamples = 6\nvalue = [6, 0]"] ;
475 -> 503 ;
504 [label="meanCY <= 1.5\nentropy = 0.8587\nsamples = 386\nvalue = [277, 109]"] ;
434 -> 504 ;
505 [label="medianX <= 4.3493\nentropy = 0.9403\nsamples = 14\nvalue = [5, 9]"] ;
504 -> 505 ;
506 [label="minY <= -7.8468\nentropy = 0.8113\nsamples = 12\nvalue = [3, 9]"] ;
505 -> 506 ;
507 [label="entropy = 0.0\nsamples = 2\nvalue = [2, 0]"] ;
506 -> 507 ;
508 [label="mean Z <= 9.2865\nentropy = 0.469\nsamples = 10\nvalue = [1, 9]"] ;
506 -> 508 ;
509 [label="entropy = 0.0\nsamples = 9\nvalue = [0, 9]"] ;
508 -> 509 ;
510 [label="entropy = 0.0\nsamples = 1\nvalue = [1, 0]"] ;
508 -> 510 ;
511 [label="entropy = 0.0\nsamples = 2\nvalue = [2, 0]"] ;
505 -> 511 ;
512 [label="mean Y <= 1.2142\nentropy = 0.8398\nsamples = 372\nvalue = [272, 100]"] ;
504 -> 512 ;
513 [label="FFTX <= 0.4219\nentropy = 0.8757\nsamples = 308\nvalue = [217, 91]"] ;
512 -> 513 ;
514 [label="Variance X <= 93.5773\nentropy = 0.9301\nsamples = 217\nvalue = [142, 75]"] ;
513 -> 514 ;
515 [label="mean Z <= 3.6001\nentropy = 0.8762\nsamples = 169\nvalue = [119, 50]"] ;
514 -> 515 ;
516 [label="mean X <= 8.7826\nentropy = 1.0\nsamples = 44\nvalue = [22, 22]"] ;
515 -> 516 ;
517 [label="mean Y <= -0.4952\nentropy = 0.9961\nsamples = 41\nvalue = [22, 19]"] ;
516 -> 517 ;
518 [label="medianX <= 4.7215\nentropy = 0.469\nsamples = 10\nvalue = [9, 1]"] ;
517 -> 518 ;
519 [label="entropy = 0.0\nsamples = 7\nvalue = [7, 0]"] ;
518 -> 519 ;
520 [label="maxZ <= 5.2402\nentropy = 0.9183\nsamples = 3\nvalue = [2, 1]"] ;
518 -> 520 ;
521 [label="entropy = 0.0\nsamples = 1\nvalue = [0, 1]"] ;
520 -> 521 ;
522 [label="entropy = 0.0\nsamples = 2\nvalue = [2, 0]"] ;
520 -> 522 ;
523 [label="Variance Z <= 1.7858\nentropy = 0.9812\nsamples = 31\nvalue = [13, 18]"] ;
517 -> 523 ;
524 [label="magnitude <= 9.4496\nentropy = 0.469\nsamples = 10\nvalue = [1, 9]"] ;
523 -> 524 ;
525 [label="Variance Z <= 1.4746\nentropy = 1.0\nsamples = 2\nvalue = [1, 1]"] ;
524 -> 525 ;
526 [label="entropy = 0.0\nsamples = 1\nvalue = [1, 0]"] ;
525 -> 526 ;
527 [label="entropy = 0.0\nsamples = 1\nvalue = [0, 1]"] ;
525 -> 527 ;
528 [label="entropy = 0.0\nsamples = 8\nvalue = [0, 8]"] ;
524 -> 528 ;
529 [label="FFTX <= 0.3281\nentropy = 0.9852\nsamples = 21\nvalue = [12, 9]"] ;
523 -> 529 ;
530 [label="entropy <= -136.2779\nentropy = 0.971\nsamples = 15\nvalue = [6, 9]"] ;
529 -> 530 ;
531 [label="entropy = 0.0\nsamples = 2\nvalue = [2, 0]"] ;
530 -> 531 ;
532 [label="FFTX <= -0.3281\nentropy = 0.8905\nsamples = 13\nvalue = [4, 9]"] ;
530 -> 532 ;
533 [label="medianZ <= 2.4274\nentropy = 0.971\nsamples = 10\nvalue = [4, 6]"] ;
532 -> 533 ;
534 [label="mean Y <= 0.0511\nentropy = 0.8113\nsamples = 4\nvalue = [3, 1]"] ;
533 -> 534 ;
535 [label="entropy = 0.0\nsamples = 1\nvalue = [0, 1]"] ;
534 -> 535 ;
536 [label="entropy = 0.0\nsamples = 3\nvalue = [3, 0]"] ;
534 -> 536 ;
537 [label="minY <= -3.5357\nentropy = 0.65\nsamples = 6\nvalue = [1, 5]"] ;
533 -> 537 ;
538 [label="maxY <= 2.7302\nentropy = 1.0\nsamples = 2\nvalue = [1, 1]"] ;
537 -> 538 ;
539 [label="entropy = 0.0\nsamples = 1\nvalue = [1, 0]"] ;
538 -> 539 ;
540 [label="entropy = 0.0\nsamples = 1\nvalue = [0, 1]"] ;
538 -> 540 ;
541 [label="entropy = 0.0\nsamples = 4\nvalue = [0, 4]"] ;
537 -> 541 ;
542 [label="entropy = 0.0\nsamples = 3\nvalue = [0, 3]"] ;
532 -> 542 ;
543 [label="entropy = 0.0\nsamples = 6\nvalue = [6, 0]"] ;
529 -> 543 ;
544 [label="entropy = 0.0\nsamples = 3\nvalue = [0, 3]"] ;
516 -> 544 ;
545 [label="medianX <= 1.5066\nentropy = 0.7674\nsamples = 125\nvalue = [97, 28]"] ;
515 -> 545 ;
546 [label="FFTX <= 0.0156\nentropy = 0.5095\nsamples = 53\nvalue = [47, 6]"] ;
545 -> 546 ;
547 [label="meanCZ <= 6.5\nentropy = 0.65\nsamples = 36\nvalue = [30, 6]"] ;
546 -> 547 ;
548 [label="entropy = 0.0\nsamples = 13\nvalue = [13, 0]"] ;
547 -> 548 ;
549 [label="maxZ <= 6.2969\nentropy = 0.8281\nsamples = 23\nvalue = [17, 6]"] ;
547 -> 549 ;
550 [label="entropy = 0.0\nsamples = 1\nvalue = [0, 1]"] ;
549 -> 550 ;
551 [label="Variance Y <= 0.5474\nentropy = 0.7732\nsamples = 22\nvalue = [17, 5]"] ;
549 -> 551 ;
552 [label="entropy = 0.0\nsamples = 2\nvalue = [0, 2]"] ;
551 -> 552 ;
553 [label="FFTY <= -0.4844\nentropy = 0.6098\nsamples = 20\nvalue = [17, 3]"] ;
551 -> 553 ;
554 [label="entropy = 0.0\nsamples = 7\nvalue = [7, 0]"] ;
553 -> 554 ;
555 [label="minY <= -2.5118\nentropy = 0.7793\nsamples = 13\nvalue = [10, 3]"] ;
553 -> 555 ;
556 [label="medianX <= -5.4441\nentropy = 0.9544\nsamples = 8\nvalue = [5, 3]"] ;
555 -> 556 ;
557 [label="entropy = 0.0\nsamples = 2\nvalue = [0, 2]"] ;
556 -> 557 ;
558 [label="magnitude <= 10.3356\nentropy = 0.65\nsamples = 6\nvalue = [5, 1]"] ;
556 -> 558 ;
559 [label="entropy = 0.0\nsamples = 5\nvalue = [5, 0]"] ;
558 -> 559 ;
560 [label="entropy = 0.0\nsamples = 1\nvalue = [0, 1]"] ;
558 -> 560 ;
561 [label="entropy = 0.0\nsamples = 5\nvalue = [5, 0]"] ;
555 -> 561 ;
562 [label="entropy = 0.0\nsamples = 17\nvalue = [17, 0]"] ;
546 -> 562 ;
563 [label="Variance Y <= 8.0539\nentropy = 0.888\nsamples = 72\nvalue = [50, 22]"] ;
545 -> 563 ;
564 [label="medianX <= 7.0737\nentropy = 0.971\nsamples = 55\nvalue = [33, 22]"] ;
563 -> 564 ;
565 [label="minY <= -1.2854\nentropy = 0.9984\nsamples = 42\nvalue = [22, 20]"] ;
564 -> 565 ;
566 [label="mean X <= 0.2363\nentropy = 0.9641\nsamples = 36\nvalue = [22, 14]"] ;
565 -> 566 ;
567 [label="entropy = 0.0\nsamples = 4\nvalue = [4, 0]"] ;
566 -> 567 ;
568 [label="minY <= -8.1594\nentropy = 0.9887\nsamples = 32\nvalue = [18, 14]"] ;
566 -> 568 ;
569 [label="entropy = 0.0\nsamples = 5\nvalue = [5, 0]"] ;
568 -> 569 ;
570 [label="minX <= -0.4395\nentropy = 0.999\nsamples = 27\nvalue = [13, 14]"] ;
568 -> 570 ;
571 [label="medianZ <= 3.4812\nentropy = 0.8454\nsamples = 11\nvalue = [3, 8]"] ;
570 -> 571 ;
572 [label="mean Y <= -0.7888\nentropy = 0.9183\nsamples = 3\nvalue = [2, 1]"] ;
571 -> 572 ;
573 [label="entropy = 0.0\nsamples = 1\nvalue = [0, 1]"] ;
572 -> 573 ;
574 [label="entropy = 0.0\nsamples = 2\nvalue = [2, 0]"] ;
572 -> 574 ;
575 [label="minY <= -1.9363\nentropy = 0.5436\nsamples = 8\nvalue = [1, 7]"] ;
571 -> 575 ;
576 [label="entropy = 0.0\nsamples = 7\nvalue = [0, 7]"] ;
575 -> 576 ;
577 [label="entropy = 0.0\nsamples = 1\nvalue = [1, 0]"] ;
575 -> 577 ;
578 [label="maxX <= 7.2945\nentropy = 0.9544\nsamples = 16\nvalue = [10, 6]"] ;
570 -> 578 ;
579 [label="Variance X <= 1.0238\nentropy = 0.7219\nsamples = 10\nvalue = [8, 2]"] ;
578 -> 579 ;
580 [label="entropy = 0.0\nsamples = 2\nvalue = [0, 2]"] ;
579 -> 580 ;
581 [label="entropy = 0.0\nsamples = 8\nvalue = [8, 0]"] ;
579 -> 581 ;
582 [label="Variance X <= 5.4942\nentropy = 0.9183\nsamples = 6\nvalue = [2, 4]"] ;
578 -> 582 ;
583 [label="entropy = 0.0\nsamples = 4\nvalue = [0, 4]"] ;
582 -> 583 ;
584 [label="entropy = 0.0\nsamples = 2\nvalue = [2, 0]"] ;
582 -> 584 ;
585 [label="entropy = 0.0\nsamples = 6\nvalue = [0, 6]"] ;
565 -> 585 ;
586 [label="mean Y <= -1.4259\nentropy = 0.6194\nsamples = 13\nvalue = [11, 2]"] ;
564 -> 586 ;
587 [label="medianY <= -2.2222\nentropy = 0.971\nsamples = 5\nvalue = [3, 2]"] ;
586 -> 587 ;
588 [label="entropy = 0.0\nsamples = 3\nvalue = [3, 0]"] ;
587 -> 588 ;
589 [label="entropy = 0.0\nsamples = 2\nvalue = [0, 2]"] ;
587 -> 589 ;
590 [label="entropy = 0.0\nsamples = 8\nvalue = [8, 0]"] ;
586 -> 590 ;
591 [label="entropy = 0.0\nsamples = 17\nvalue = [17, 0]"] ;
563 -> 591 ;
592 [label="FFTX <= -0.4219\nentropy = 0.9987\nsamples = 48\nvalue = [23, 25]"] ;
514 -> 592 ;
593 [label="medianY <= -0.694\nentropy = 0.8631\nsamples = 14\nvalue = [10, 4]"] ;
592 -> 593 ;
594 [label="entropy = 0.0\nsamples = 8\nvalue = [8, 0]"] ;
593 -> 594 ;
595 [label="meanCZ <= 10.5\nentropy = 0.9183\nsamples = 6\nvalue = [2, 4]"] ;
593 -> 595 ;
596 [label="entropy = 0.0\nsamples = 3\nvalue = [0, 3]"] ;
595 -> 596 ;
597 [label="magnitude <= 10.5288\nentropy = 0.9183\nsamples = 3\nvalue = [2, 1]"] ;
595 -> 597 ;
598 [label="entropy = 0.0\nsamples = 1\nvalue = [0, 1]"] ;
597 -> 598 ;
599 [label="entropy = 0.0\nsamples = 2\nvalue = [2, 0]"] ;
597 -> 599 ;
600 [label="magnitude <= 10.7718\nentropy = 0.9597\nsamples = 34\nvalue = [13, 21]"] ;
592 -> 600 ;
601 [label="medianZ <= 1.9752\nentropy = 0.9963\nsamples = 28\nvalue = [13, 15]"] ;
600 -> 601 ;
602 [label="minX <= -17.4626\nentropy = 0.5033\nsamples = 9\nvalue = [1, 8]"] ;
601 -> 602 ;
603 [label="medianX <= 1.8\nentropy = 0.9183\nsamples = 3\nvalue = [1, 2]"] ;
602 -> 603 ;
604 [label="entropy = 0.0\nsamples = 2\nvalue = [0, 2]"] ;
603 -> 604 ;
605 [label="entropy = 0.0\nsamples = 1\nvalue = [1, 0]"] ;
603 -> 605 ;
606 [label="entropy = 0.0\nsamples = 6\nvalue = [0, 6]"] ;
602 -> 606 ;
607 [label="Variance X <= 101.8455\nentropy = 0.9495\nsamples = 19\nvalue = [12, 7]"] ;
601 -> 607 ;
608 [label="minY <= -2.9748\nentropy = 0.9968\nsamples = 15\nvalue = [8, 7]"] ;
607 -> 608 ;
609 [label="entropy = 0.0\nsamples = 5\nvalue = [0, 5]"] ;
608 -> 609 ;
610 [label="maxX <= 9.4014\nentropy = 0.7219\nsamples = 10\nvalue = [8, 2]"] ;
608 -> 610 ;
611 [label="minZ <= 0.5941\nentropy = 1.0\nsamples = 4\nvalue = [2, 2]"] ;
610 -> 611 ;
612 [label="entropy = 0.0\nsamples = 2\nvalue = [0, 2]"] ;
611 -> 612 ;
613 [label="entropy = 0.0\nsamples = 2\nvalue = [2, 0]"] ;
611 -> 613 ;
614 [label="entropy = 0.0\nsamples = 6\nvalue = [6, 0]"] ;
610 -> 614 ;
615 [label="entropy = 0.0\nsamples = 4\nvalue = [4, 0]"] ;
607 -> 615 ;
616 [label="entropy = 0.0\nsamples = 6\nvalue = [0, 6]"] ;
600 -> 616 ;
617 [label="FFTX <= 0.4531\nentropy = 0.6709\nsamples = 91\nvalue = [75, 16]"] ;
513 -> 617 ;
618 [label="entropy = 0.0\nsamples = 50\nvalue = [50, 0]"] ;
617 -> 618 ;
619 [label="magnitude <= 9.6654\nentropy = 0.965\nsamples = 41\nvalue = [25, 16]"] ;
617 -> 619 ;
620 [label="entropy = 0.0\nsamples = 4\nvalue = [4, 0]"] ;
619 -> 620 ;
621 [label="Variance Y <= 3.2092\nentropy = 0.9868\nsamples = 37\nvalue = [21, 16]"] ;
619 -> 621 ;
622 [label="entropy = 0.0\nsamples = 5\nvalue = [5, 0]"] ;
621 -> 622 ;
623 [label="meanCX <= 15.5\nentropy = 1.0\nsamples = 32\nvalue = [16, 16]"] ;
621 -> 623 ;
624 [label="entropy = 0.0\nsamples = 3\nvalue = [0, 3]"] ;
623 -> 624 ;
625 [label="maxZ <= 5.9772\nentropy = 0.9923\nsamples = 29\nvalue = [16, 13]"] ;
623 -> 625 ;
626 [label="entropy = 0.0\nsamples = 4\nvalue = [0, 4]"] ;
625 -> 626 ;
627 [label="Variance Y <= 8.9573\nentropy = 0.9427\nsamples = 25\nvalue = [16, 9]"] ;
625 -> 627 ;
628 [label="minY <= -3.0939\nentropy = 0.998\nsamples = 19\nvalue = [10, 9]"] ;
627 -> 628 ;
629 [label="mean Y <= 0.3948\nentropy = 0.65\nsamples = 6\nvalue = [1, 5]"] ;
628 -> 629 ;
630 [label="entropy = 0.0\nsamples = 5\nvalue = [0, 5]"] ;
629 -> 630 ;
631 [label="entropy = 0.0\nsamples = 1\nvalue = [1, 0]"] ;
629 -> 631 ;
632 [label="Variance Y <= 6.9978\nentropy = 0.8905\nsamples = 13\nvalue = [9, 4]"] ;
628 -> 632 ;
633 [label="Variance Z <= 2.4365\nentropy = 0.684\nsamples = 11\nvalue = [9, 2]"] ;
632 -> 633 ;
634 [label="medianX <= -6.3777\nentropy = 1.0\nsamples = 4\nvalue = [2, 2]"] ;
633 -> 634 ;
635 [label="entropy = 0.0\nsamples = 1\nvalue = [1, 0]"] ;
634 -> 635 ;
636 [label="medianX <= 1.8984\nentropy = 0.9183\nsamples = 3\nvalue = [1, 2]"] ;
634 -> 636 ;
637 [label="entropy = 0.0\nsamples = 2\nvalue = [0, 2]"] ;
636 -> 637 ;
638 [label="entropy = 0.0\nsamples = 1\nvalue = [1, 0]"] ;
636 -> 638 ;
639 [label="entropy = 0.0\nsamples = 7\nvalue = [7, 0]"] ;
633 -> 639 ;
640 [label="entropy = 0.0\nsamples = 2\nvalue = [0, 2]"] ;
632 -> 640 ;
641 [label="entropy = 0.0\nsamples = 6\nvalue = [6, 0]"] ;
627 -> 641 ;
642 [label="medianZ <= 2.8195\nentropy = 0.5859\nsamples = 64\nvalue = [55, 9]"] ;
512 -> 642 ;
643 [label="mean Y <= 8.4653\nentropy = 0.896\nsamples = 16\nvalue = [11, 5]"] ;
642 -> 643 ;
644 [label="maxZ <= 6.7076\nentropy = 0.7496\nsamples = 14\nvalue = [11, 3]"] ;
643 -> 644 ;
645 [label="entropy = 0.0\nsamples = 8\nvalue = [8, 0]"] ;
644 -> 645 ;
646 [label="Variance Z <= 1.9221\nentropy = 1.0\nsamples = 6\nvalue = [3, 3]"] ;
644 -> 646 ;
647 [label="entropy = 0.0\nsamples = 1\nvalue = [1, 0]"] ;
646 -> 647 ;
648 [label="maxZ <= 7.3186\nentropy = 0.971\nsamples = 5\nvalue = [2, 3]"] ;
646 -> 648 ;
649 [label="entropy = 0.0\nsamples = 2\nvalue = [0, 2]"] ;
648 -> 649 ;
650 [label="zeroY <= 3.5\nentropy = 0.9183\nsamples = 3\nvalue = [2, 1]"] ;
648 -> 650 ;
651 [label="entropy = 0.0\nsamples = 1\nvalue = [0, 1]"] ;
650 -> 651 ;
652 [label="entropy = 0.0\nsamples = 2\nvalue = [2, 0]"] ;
650 -> 652 ;
653 [label="entropy = 0.0\nsamples = 2\nvalue = [0, 2]"] ;
643 -> 653 ;
654 [label="minZ <= 4.5315\nentropy = 0.4138\nsamples = 48\nvalue = [44, 4]"] ;
642 -> 654 ;
655 [label="entropy = 0.0\nsamples = 29\nvalue = [29, 0]"] ;
654 -> 655 ;
656 [label="mean Z <= 6.84\nentropy = 0.7425\nsamples = 19\nvalue = [15, 4]"] ;
654 -> 656 ;
657 [label="Variance Z <= 0.9366\nentropy = 0.9183\nsamples = 3\nvalue = [1, 2]"] ;
656 -> 657 ;
658 [label="entropy = 0.0\nsamples = 1\nvalue = [1, 0]"] ;
657 -> 658 ;
659 [label="entropy = 0.0\nsamples = 2\nvalue = [0, 2]"] ;
657 -> 659 ;
660 [label="medianX <= 2.6669\nentropy = 0.5436\nsamples = 16\nvalue = [14, 2]"] ;
656 -> 660 ;
661 [label="meanCX <= 3.0\nentropy = 0.8113\nsamples = 8\nvalue = [6, 2]"] ;
660 -> 661 ;
662 [label="entropy = 0.0\nsamples = 2\nvalue = [0, 2]"] ;
661 -> 662 ;
663 [label="entropy = 0.0\nsamples = 6\nvalue = [6, 0]"] ;
661 -> 663 ;
664 [label="entropy = 0.0\nsamples = 8\nvalue = [8, 0]"] ;
660 -> 664 ;
665 [label="FFTX <= -0.4219\nentropy = 0.9964\nsamples = 99\nvalue = [46, 53]"] ;
433 -> 665 ;
666 [label="medianY <= -0.8029\nentropy = 0.7455\nsamples = 33\nvalue = [26, 7]"] ;
665 -> 666 ;
667 [label="Variance X <= 99.022\nentropy = 0.9495\nsamples = 19\nvalue = [12, 7]"] ;
666 -> 667 ;
668 [label="medianZ <= 3.6131\nentropy = 0.874\nsamples = 17\nvalue = [12, 5]"] ;
667 -> 668 ;
669 [label="minZ <= 0.0576\nentropy = 0.7219\nsamples = 15\nvalue = [12, 3]"] ;
668 -> 669 ;
670 [label="entropy = 0.0\nsamples = 2\nvalue = [0, 2]"] ;
669 -> 670 ;
671 [label="minY <= -3.3143\nentropy = 0.3912\nsamples = 13\nvalue = [12, 1]"] ;
669 -> 671 ;
672 [label="mean Z <= 3.4313\nentropy = 0.8113\nsamples = 4\nvalue = [3, 1]"] ;
671 -> 672 ;
673 [label="entropy = 0.0\nsamples = 3\nvalue = [3, 0]"] ;
672 -> 673 ;
674 [label="entropy = 0.0\nsamples = 1\nvalue = [0, 1]"] ;
672 -> 674 ;
675 [label="entropy = 0.0\nsamples = 9\nvalue = [9, 0]"] ;
671 -> 675 ;
676 [label="entropy = 0.0\nsamples = 2\nvalue = [0, 2]"] ;
668 -> 676 ;
677 [label="entropy = 0.0\nsamples = 2\nvalue = [0, 2]"] ;
667 -> 677 ;
678 [label="entropy = 0.0\nsamples = 14\nvalue = [14, 0]"] ;
666 -> 678 ;
679 [label="mean Z <= 2.5448\nentropy = 0.885\nsamples = 66\nvalue = [20, 46]"] ;
665 -> 679 ;
680 [label="zeroY <= 12.5\nentropy = 0.9183\nsamples = 9\nvalue = [6, 3]"] ;
679 -> 680 ;
681 [label="entropy = 0.0\nsamples = 5\nvalue = [5, 0]"] ;
680 -> 681 ;
682 [label="meanCX <= 16.5\nentropy = 0.8113\nsamples = 4\nvalue = [1, 3]"] ;
680 -> 682 ;
683 [label="entropy = 0.0\nsamples = 2\nvalue = [0, 2]"] ;
682 -> 683 ;
684 [label="magnitude <= 10.2716\nentropy = 1.0\nsamples = 2\nvalue = [1, 1]"] ;
682 -> 684 ;
685 [label="entropy = 0.0\nsamples = 1\nvalue = [0, 1]"] ;
684 -> 685 ;
686 [label="entropy = 0.0\nsamples = 1\nvalue = [1, 0]"] ;
684 -> 686 ;
687 [label="maxY <= 3.4721\nentropy = 0.8043\nsamples = 57\nvalue = [14, 43]"] ;
679 -> 687 ;
688 [label="medianY <= -1.5847\nentropy = 0.9544\nsamples = 16\nvalue = [10, 6]"] ;
687 -> 688 ;
689 [label="entropy = 0.0\nsamples = 3\nvalue = [0, 3]"] ;
688 -> 689 ;
690 [label="mean X <= -0.1071\nentropy = 0.7793\nsamples = 13\nvalue = [10, 3]"] ;
688 -> 690 ;
691 [label="entropy = 0.0\nsamples = 9\nvalue = [9, 0]"] ;
690 -> 691 ;
692 [label="magnitude <= 9.0756\nentropy = 0.8113\nsamples = 4\nvalue = [1, 3]"] ;
690 -> 692 ;
693 [label="entropy = 0.0\nsamples = 1\nvalue = [1, 0]"] ;
692 -> 693 ;
694 [label="entropy = 0.0\nsamples = 3\nvalue = [0, 3]"] ;
692 -> 694 ;
695 [label="FFTY <= 0.4531\nentropy = 0.4612\nsamples = 41\nvalue = [4, 37]"] ;
687 -> 695 ;
696 [label="entropy = 0.0\nsamples = 31\nvalue = [0, 31]"] ;
695 -> 696 ;
697 [label="medianX <= -6.0959\nentropy = 0.971\nsamples = 10\nvalue = [4, 6]"] ;
695 -> 697 ;
698 [label="entropy = 0.0\nsamples = 5\nvalue = [0, 5]"] ;
697 -> 698 ;
699 [label="maxX <= 9.405\nentropy = 0.7219\nsamples = 5\nvalue = [4, 1]"] ;
697 -> 699 ;
700 [label="entropy = 0.0\nsamples = 4\nvalue = [4, 0]"] ;
699 -> 700 ;
701 [label="entropy = 0.0\nsamples = 1\nvalue = [0, 1]"] ;
699 -> 701 ;
702 [label="Variance X <= 105.4115\nentropy = 0.1893\nsamples = 69\nvalue = [67, 2]"] ;
160 -> 702 ;
703 [label="minX <= -6.0252\nentropy = 0.1106\nsamples = 68\nvalue = [67, 1]"] ;
702 -> 703 ;
704 [label="Variance X <= 3.223\nentropy = 0.3095\nsamples = 18\nvalue = [17, 1]"] ;
703 -> 704 ;
705 [label="entropy = 0.0\nsamples = 1\nvalue = [0, 1]"] ;
704 -> 705 ;
706 [label="entropy = 0.0\nsamples = 17\nvalue = [17, 0]"] ;
704 -> 706 ;
707 [label="entropy = 0.0\nsamples = 50\nvalue = [50, 0]"] ;
703 -> 707 ;
708 [label="entropy = 0.0\nsamples = 1\nvalue = [0, 1]"] ;
702 -> 708 ;
709 [label="Variance Z <= 3.8811\nentropy = 0.121\nsamples = 3040\nvalue = [2990, 50]"] ;
159 -> 709 ;
710 [label="zeroY <= 3.5\nentropy = 0.2806\nsamples = 658\nvalue = [626, 32]"] ;
709 -> 710 ;
711 [label="mean X <= 1.2262\nentropy = 0.4886\nsamples = 207\nvalue = [185, 22]"] ;
710 -> 711 ;
712 [label="mean Y <= 1.2219\nentropy = 0.3635\nsamples = 173\nvalue = [161, 12]"] ;
711 -> 712 ;
713 [label="magnitude <= 9.8475\nentropy = 0.2707\nsamples = 151\nvalue = [144, 7]"] ;
712 -> 713 ;
714 [label="entropy = 0.0\nsamples = 54\nvalue = [54, 0]"] ;
713 -> 714 ;
715 [label="medianY <= -1.3576\nentropy = 0.374\nsamples = 97\nvalue = [90, 7]"] ;
713 -> 715 ;
716 [label="medianY <= -1.7894\nentropy = 0.8113\nsamples = 20\nvalue = [15, 5]"] ;
715 -> 716 ;
717 [label="meanCX <= 7.5\nentropy = 0.3534\nsamples = 15\nvalue = [14, 1]"] ;
716 -> 717 ;
718 [label="entropy = 0.0\nsamples = 14\nvalue = [14, 0]"] ;
717 -> 718 ;
719 [label="entropy = 0.0\nsamples = 1\nvalue = [0, 1]"] ;
717 -> 719 ;
720 [label="meanCX <= 6.5\nentropy = 0.7219\nsamples = 5\nvalue = [1, 4]"] ;
716 -> 720 ;
721 [label="entropy = 0.0\nsamples = 4\nvalue = [0, 4]"] ;
720 -> 721 ;
722 [label="entropy = 0.0\nsamples = 1\nvalue = [1, 0]"] ;
720 -> 722 ;
723 [label="Variance Z <= 1.5121\nentropy = 0.1738\nsamples = 77\nvalue = [75, 2]"] ;
715 -> 723 ;
724 [label="meanCZ <= 4.5\nentropy = 0.8631\nsamples = 7\nvalue = [5, 2]"] ;
723 -> 724 ;
725 [label="entropy = 0.0\nsamples = 4\nvalue = [4, 0]"] ;
724 -> 725 ;
726 [label="minZ <= 8.1529\nentropy = 0.9183\nsamples = 3\nvalue = [1, 2]"] ;
724 -> 726 ;
727 [label="entropy = 0.0\nsamples = 2\nvalue = [0, 2]"] ;
726 -> 727 ;
728 [label="entropy = 0.0\nsamples = 1\nvalue = [1, 0]"] ;
726 -> 728 ;
729 [label="entropy = 0.0\nsamples = 70\nvalue = [70, 0]"] ;
723 -> 729 ;
730 [label="mean X <= -1.3855\nentropy = 0.7732\nsamples = 22\nvalue = [17, 5]"] ;
712 -> 730 ;
731 [label="entropy = 0.0\nsamples = 6\nvalue = [6, 0]"] ;
730 -> 731 ;
732 [label="meanCY <= 1.5\nentropy = 0.896\nsamples = 16\nvalue = [11, 5]"] ;
730 -> 732 ;
733 [label="entropy = 0.0\nsamples = 3\nvalue = [0, 3]"] ;
732 -> 733 ;
734 [label="Variance X <= 2.3616\nentropy = 0.6194\nsamples = 13\nvalue = [11, 2]"] ;
732 -> 734 ;
735 [label="entropy = 0.0\nsamples = 10\nvalue = [10, 0]"] ;
734 -> 735 ;
736 [label="Variance Z <= 2.456\nentropy = 0.9183\nsamples = 3\nvalue = [1, 2]"] ;
734 -> 736 ;
737 [label="entropy = 0.0\nsamples = 2\nvalue = [0, 2]"] ;
736 -> 737 ;
738 [label="entropy = 0.0\nsamples = 1\nvalue = [1, 0]"] ;
736 -> 738 ;
739 [label="maxZ <= 13.0049\nentropy = 0.874\nsamples = 34\nvalue = [24, 10]"] ;
711 -> 739 ;
740 [label="Variance X <= 2.2678\nentropy = 0.9544\nsamples = 8\nvalue = [3, 5]"] ;
739 -> 740 ;
741 [label="entropy = 0.0\nsamples = 4\nvalue = [0, 4]"] ;
740 -> 741 ;
742 [label="Variance Y <= 1.1211\nentropy = 0.8113\nsamples = 4\nvalue = [3, 1]"] ;
740 -> 742 ;
743 [label="entropy = 0.0\nsamples = 1\nvalue = [0, 1]"] ;
742 -> 743 ;
744 [label="entropy = 0.0\nsamples = 3\nvalue = [3, 0]"] ;
742 -> 744 ;
745 [label="mean X <= 1.9507\nentropy = 0.7063\nsamples = 26\nvalue = [21, 5]"] ;
739 -> 745 ;
746 [label="entropy = 0.0\nsamples = 11\nvalue = [11, 0]"] ;
745 -> 746 ;
747 [label="medianY <= 1.1828\nentropy = 0.9183\nsamples = 15\nvalue = [10, 5]"] ;
745 -> 747 ;
748 [label="maxY <= 1.5715\nentropy = 0.9911\nsamples = 9\nvalue = [4, 5]"] ;
747 -> 748 ;
749 [label="entropy = 0.0\nsamples = 3\nvalue = [3, 0]"] ;
748 -> 749 ;
750 [label="Variance Z <= 3.802\nentropy = 0.65\nsamples = 6\nvalue = [1, 5]"] ;
748 -> 750 ;
751 [label="entropy = 0.0\nsamples = 5\nvalue = [0, 5]"] ;
750 -> 751 ;
752 [label="entropy = 0.0\nsamples = 1\nvalue = [1, 0]"] ;
750 -> 752 ;
753 [label="entropy = 0.0\nsamples = 6\nvalue = [6, 0]"] ;
747 -> 753 ;
754 [label="medianY <= -1.2503\nentropy = 0.1535\nsamples = 451\nvalue = [441, 10]"] ;
710 -> 754 ;
755 [label="Variance Z <= 2.6118\nentropy = 0.9544\nsamples = 8\nvalue = [5, 3]"] ;
754 -> 755 ;
756 [label="entropy = 0.0\nsamples = 3\nvalue = [3, 0]"] ;
755 -> 756 ;
757 [label="maxX <= 2.4985\nentropy = 0.971\nsamples = 5\nvalue = [2, 3]"] ;
755 -> 757 ;
758 [label="entropy = 0.0\nsamples = 3\nvalue = [0, 3]"] ;
757 -> 758 ;
759 [label="entropy = 0.0\nsamples = 2\nvalue = [2, 0]"] ;
757 -> 759 ;
760 [label="medianZ <= 9.6796\nentropy = 0.1172\nsamples = 443\nvalue = [436, 7]"] ;
754 -> 760 ;
761 [label="medianZ <= 9.6752\nentropy = 0.1803\nsamples = 257\nvalue = [250, 7]"] ;
760 -> 761 ;
762 [label="meanCX <= 9.5\nentropy = 0.1603\nsamples = 256\nvalue = [250, 6]"] ;
761 -> 762 ;
763 [label="Variance Z <= 3.8749\nentropy = 0.118\nsamples = 251\nvalue = [247, 4]"] ;
762 -> 763 ;
764 [label="medianX <= -4.1016\nentropy = 0.0938\nsamples = 250\nvalue = [247, 3]"] ;
763 -> 764 ;
765 [label="entropy = 0.0\nsamples = 1\nvalue = [0, 1]"] ;
764 -> 765 ;
766 [label="Variance Z <= 2.0152\nentropy = 0.0674\nsamples = 249\nvalue = [247, 2]"] ;
764 -> 766 ;
767 [label="maxX <= 4.0401\nentropy = 0.3034\nsamples = 37\nvalue = [35, 2]"] ;
766 -> 767 ;
768 [label="entropy = 0.0\nsamples = 34\nvalue = [34, 0]"] ;
767 -> 768 ;
769 [label="minZ <= 7.454\nentropy = 0.9183\nsamples = 3\nvalue = [1, 2]"] ;
767 -> 769 ;
770 [label="entropy = 0.0\nsamples = 1\nvalue = [1, 0]"] ;
769 -> 770 ;
771 [label="entropy = 0.0\nsamples = 2\nvalue = [0, 2]"] ;
769 -> 771 ;
772 [label="entropy = 0.0\nsamples = 212\nvalue = [212, 0]"] ;
766 -> 772 ;
773 [label="entropy = 0.0\nsamples = 1\nvalue = [0, 1]"] ;
763 -> 773 ;
774 [label="medianZ <= 9.2615\nentropy = 0.971\nsamples = 5\nvalue = [3, 2]"] ;
762 -> 774 ;
775 [label="entropy = 0.0\nsamples = 3\nvalue = [3, 0]"] ;
774 -> 775 ;
776 [label="entropy = 0.0\nsamples = 2\nvalue = [0, 2]"] ;
774 -> 776 ;
777 [label="entropy = 0.0\nsamples = 1\nvalue = [0, 1]"] ;
761 -> 777 ;
778 [label="entropy = 0.0\nsamples = 186\nvalue = [186, 0]"] ;
760 -> 778 ;
779 [label="Variance X <= 32.4511\nentropy = 0.0641\nsamples = 2382\nvalue = [2364, 18]"] ;
709 -> 779 ;
780 [label="meanCX <= 1.5\nentropy = 0.0464\nsamples = 2342\nvalue = [2330, 12]"] ;
779 -> 780 ;
781 [label="mean Y <= 1.0997\nentropy = 0.386\nsamples = 53\nvalue = [49, 4]"] ;
780 -> 781 ;
782 [label="entropy = 0.0\nsamples = 41\nvalue = [41, 0]"] ;
781 -> 782 ;
783 [label="entropy <= -129.478\nentropy = 0.9183\nsamples = 12\nvalue = [8, 4]"] ;
781 -> 783 ;
784 [label="entropy = 0.0\nsamples = 2\nvalue = [0, 2]"] ;
783 -> 784 ;
785 [label="minY <= -3.1733\nentropy = 0.7219\nsamples = 10\nvalue = [8, 2]"] ;
783 -> 785 ;
786 [label="Variance Y <= 12.4216\nentropy = 0.9183\nsamples = 3\nvalue = [1, 2]"] ;
785 -> 786 ;
787 [label="entropy = 0.0\nsamples = 1\nvalue = [1, 0]"] ;
786 -> 787 ;
788 [label="entropy = 0.0\nsamples = 2\nvalue = [0, 2]"] ;
786 -> 788 ;
789 [label="entropy = 0.0\nsamples = 7\nvalue = [7, 0]"] ;
785 -> 789 ;
790 [label="Variance X <= 0.6451\nentropy = 0.0336\nsamples = 2289\nvalue = [2281, 8]"] ;
780 -> 790 ;
791 [label="magnitude <= 10.1095\nentropy = 0.6962\nsamples = 16\nvalue = [13, 3]"] ;
790 -> 791 ;
792 [label="entropy = 0.0\nsamples = 8\nvalue = [8, 0]"] ;
791 -> 792 ;
793 [label="entropy <= -130.1709\nentropy = 0.9544\nsamples = 8\nvalue = [5, 3]"] ;
791 -> 793 ;
794 [label="meanCX <= 5.0\nentropy = 0.8113\nsamples = 4\nvalue = [1, 3]"] ;
793 -> 794 ;
795 [label="entropy = 0.0\nsamples = 1\nvalue = [1, 0]"] ;
794 -> 795 ;
796 [label="entropy = 0.0\nsamples = 3\nvalue = [0, 3]"] ;
794 -> 796 ;
797 [label="entropy = 0.0\nsamples = 4\nvalue = [4, 0]"] ;
793 -> 797 ;
798 [label="medianX <= 4.783\nentropy = 0.0226\nsamples = 2273\nvalue = [2268, 5]"] ;
790 -> 798 ;
799 [label="minZ <= 0.0361\nentropy = 0.0103\nsamples = 2240\nvalue = [2238, 2]"] ;
798 -> 799 ;
800 [label="minX <= -2.0788\nentropy = 0.4395\nsamples = 11\nvalue = [10, 1]"] ;
799 -> 800 ;
801 [label="entropy = 0.0\nsamples = 10\nvalue = [10, 0]"] ;
800 -> 801 ;
802 [label="entropy = 0.0\nsamples = 1\nvalue = [0, 1]"] ;
800 -> 802 ;
803 [label="meanCZ <= 7.5\nentropy = 0.0056\nsamples = 2229\nvalue = [2228, 1]"] ;
799 -> 803 ;
804 [label="entropy = 0.0\nsamples = 2014\nvalue = [2014, 0]"] ;
803 -> 804 ;
805 [label="maxZ <= 14.1989\nentropy = 0.0427\nsamples = 215\nvalue = [214, 1]"] ;
803 -> 805 ;
806 [label="meanCY <= 3.5\nentropy = 0.3712\nsamples = 14\nvalue = [13, 1]"] ;
805 -> 806 ;
807 [label="Variance Z <= 4.7185\nentropy = 0.9183\nsamples = 3\nvalue = [2, 1]"] ;
806 -> 807 ;
808 [label="entropy = 0.0\nsamples = 2\nvalue = [2, 0]"] ;
807 -> 808 ;
809 [label="entropy = 0.0\nsamples = 1\nvalue = [0, 1]"] ;
807 -> 809 ;
810 [label="entropy = 0.0\nsamples = 11\nvalue = [11, 0]"] ;
806 -> 810 ;
811 [label="entropy = 0.0\nsamples = 201\nvalue = [201, 0]"] ;
805 -> 811 ;
812 [label="magnitude <= 9.9698\nentropy = 0.4395\nsamples = 33\nvalue = [30, 3]"] ;
798 -> 812 ;
813 [label="meanCX <= 5.5\nentropy = 0.9183\nsamples = 3\nvalue = [1, 2]"] ;
812 -> 813 ;
814 [label="entropy = 0.0\nsamples = 2\nvalue = [0, 2]"] ;
813 -> 814 ;
815 [label="entropy = 0.0\nsamples = 1\nvalue = [1, 0]"] ;
813 -> 815 ;
816 [label="meanCZ <= 1.5\nentropy = 0.2108\nsamples = 30\nvalue = [29, 1]"] ;
812 -> 816 ;
817 [label="minY <= -2.0021\nentropy = 0.7219\nsamples = 5\nvalue = [4, 1]"] ;
816 -> 817 ;
818 [label="entropy = 0.0\nsamples = 4\nvalue = [4, 0]"] ;
817 -> 818 ;
819 [label="entropy = 0.0\nsamples = 1\nvalue = [0, 1]"] ;
817 -> 819 ;
820 [label="entropy = 0.0\nsamples = 25\nvalue = [25, 0]"] ;
816 -> 820 ;
821 [label="Variance Z <= 13.0565\nentropy = 0.6098\nsamples = 40\nvalue = [34, 6]"] ;
779 -> 821 ;
822 [label="minY <= -9.292\nentropy = 0.994\nsamples = 11\nvalue = [5, 6]"] ;
821 -> 822 ;
823 [label="entropy = 0.0\nsamples = 2\nvalue = [2, 0]"] ;
822 -> 823 ;
824 [label="mean Y <= -0.243\nentropy = 0.9183\nsamples = 9\nvalue = [3, 6]"] ;
822 -> 824 ;
825 [label="entropy = 0.0\nsamples = 3\nvalue = [0, 3]"] ;
824 -> 825 ;
826 [label="minX <= -14.3155\nentropy = 1.0\nsamples = 6\nvalue = [3, 3]"] ;
824 -> 826 ;
827 [label="entropy = 0.0\nsamples = 2\nvalue = [0, 2]"] ;
826 -> 827 ;
828 [label="maxZ <= 14.8757\nentropy = 0.8113\nsamples = 4\nvalue = [3, 1]"] ;
826 -> 828 ;
829 [label="entropy = 0.0\nsamples = 3\nvalue = [3, 0]"] ;
828 -> 829 ;
830 [label="entropy = 0.0\nsamples = 1\nvalue = [0, 1]"] ;
828 -> 830 ;
831 [label="entropy = 0.0\nsamples = 29\nvalue = [29, 0]"] ;
821 -> 831 ;
832 [label="maxZ <= 11.5027\nentropy = 0.3125\nsamples = 9131\nvalue = [514, 8617]"] ;
0 -> 832 [labeldistance=2.5, labelangle=-45, headlabel="False"] ;
833 [label="maxY <= 1.2255\nentropy = 0.1386\nsamples = 8773\nvalue = [171, 8602]"] ;
832 -> 833 ;
834 [label="Variance Y <= 0.0012\nentropy = 0.0987\nsamples = 8059\nvalue = [103, 7956]"] ;
833 -> 834 ;
835 [label="mean X <= -0.0682\nentropy = 0.4046\nsamples = 409\nvalue = [33, 376]"] ;
834 -> 835 ;
836 [label="entropy = 0.0\nsamples = 152\nvalue = [0, 152]"] ;
835 -> 836 ;
837 [label="medianZ <= 9.6878\nentropy = 0.553\nsamples = 257\nvalue = [33, 224]"] ;
835 -> 837 ;
838 [label="minX <= -0.1091\nentropy = 0.6194\nsamples = 39\nvalue = [33, 6]"] ;
837 -> 838 ;
839 [label="entropy = 0.0\nsamples = 6\nvalue = [0, 6]"] ;
838 -> 839 ;
840 [label="entropy = 0.0\nsamples = 33\nvalue = [33, 0]"] ;
838 -> 840 ;
841 [label="entropy = 0.0\nsamples = 218\nvalue = [0, 218]"] ;
837 -> 841 ;
842 [label="Variance X <= 0.0518\nentropy = 0.0751\nsamples = 7650\nvalue = [70, 7580]"] ;
834 -> 842 ;
843 [label="maxZ <= 9.6496\nentropy = 0.0422\nsamples = 6112\nvalue = [28, 6084]"] ;
842 -> 843 ;
844 [label="Variance X <= 0.0017\nentropy = 0.1274\nsamples = 855\nvalue = [15, 840]"] ;
843 -> 844 ;
845 [label="medianZ <= 9.5095\nentropy = 0.7219\nsamples = 10\nvalue = [8, 2]"] ;
844 -> 845 ;
846 [label="entropy = 0.0\nsamples = 2\nvalue = [0, 2]"] ;
845 -> 846 ;
847 [label="entropy = 0.0\nsamples = 8\nvalue = [8, 0]"] ;
845 -> 847 ;
848 [label="maxZ <= 9.4315\nentropy = 0.0692\nsamples = 845\nvalue = [7, 838]"] ;
844 -> 848 ;
849 [label="medianZ <= 9.1867\nentropy = 0.4821\nsamples = 48\nvalue = [5, 43]"] ;
848 -> 849 ;
850 [label="maxY <= -0.4658\nentropy = 0.1831\nsamples = 36\nvalue = [1, 35]"] ;
849 -> 850 ;
851 [label="entropy = 0.0\nsamples = 32\nvalue = [0, 32]"] ;
850 -> 851 ;
852 [label="mean X <= 4.2563\nentropy = 0.8113\nsamples = 4\nvalue = [1, 3]"] ;
850 -> 852 ;
853 [label="entropy = 0.0\nsamples = 3\nvalue = [0, 3]"] ;
852 -> 853 ;
854 [label="entropy = 0.0\nsamples = 1\nvalue = [1, 0]"] ;
852 -> 854 ;
855 [label="maxY <= -0.0184\nentropy = 0.9183\nsamples = 12\nvalue = [4, 8]"] ;
849 -> 855 ;
856 [label="entropy = 0.0\nsamples = 7\nvalue = [0, 7]"] ;
855 -> 856 ;
857 [label="meanCX <= 2.0\nentropy = 0.7219\nsamples = 5\nvalue = [4, 1]"] ;
855 -> 857 ;
858 [label="entropy = 0.0\nsamples = 1\nvalue = [0, 1]"] ;
857 -> 858 ;
859 [label="entropy = 0.0\nsamples = 4\nvalue = [4, 0]"] ;
857 -> 859 ;
860 [label="meanCZ <= 15.5\nentropy = 0.0253\nsamples = 797\nvalue = [2, 795]"] ;
848 -> 860 ;
861 [label="zeroY <= 12.5\nentropy = 0.0139\nsamples = 795\nvalue = [1, 794]"] ;
860 -> 861 ;
862 [label="entropy = 0.0\nsamples = 785\nvalue = [0, 785]"] ;
861 -> 862 ;
863 [label="minZ <= 9.2813\nentropy = 0.469\nsamples = 10\nvalue = [1, 9]"] ;
861 -> 863 ;
864 [label="FFTY <= -0.2031\nentropy = 1.0\nsamples = 2\nvalue = [1, 1]"] ;
863 -> 864 ;
865 [label="entropy = 0.0\nsamples = 1\nvalue = [1, 0]"] ;
864 -> 865 ;
866 [label="entropy = 0.0\nsamples = 1\nvalue = [0, 1]"] ;
864 -> 866 ;
867 [label="entropy = 0.0\nsamples = 8\nvalue = [0, 8]"] ;
863 -> 867 ;
868 [label="meanCY <= 6.5\nentropy = 1.0\nsamples = 2\nvalue = [1, 1]"] ;
860 -> 868 ;
869 [label="entropy = 0.0\nsamples = 1\nvalue = [1, 0]"] ;
868 -> 869 ;
870 [label="entropy = 0.0\nsamples = 1\nvalue = [0, 1]"] ;
868 -> 870 ;
871 [label="medianZ <= 10.421\nentropy = 0.025\nsamples = 5257\nvalue = [13, 5244]"] ;
843 -> 871 ;
872 [label="medianY <= -1.5586\nentropy = 0.02\nsamples = 5249\nvalue = [10, 5239]"] ;
871 -> 872 ;
873 [label="maxZ <= 10.5781\nentropy = 0.3373\nsamples = 32\nvalue = [2, 30]"] ;
872 -> 873 ;
874 [label="maxX <= 1.09\nentropy = 0.2056\nsamples = 31\nvalue = [1, 30]"] ;
873 -> 874 ;
875 [label="entropy = 0.0\nsamples = 25\nvalue = [0, 25]"] ;
874 -> 875 ;
876 [label="mean Y <= -1.6312\nentropy = 0.65\nsamples = 6\nvalue = [1, 5]"] ;
874 -> 876 ;
877 [label="entropy = 0.0\nsamples = 5\nvalue = [0, 5]"] ;
876 -> 877 ;
878 [label="entropy = 0.0\nsamples = 1\nvalue = [1, 0]"] ;
876 -> 878 ;
879 [label="entropy = 0.0\nsamples = 1\nvalue = [1, 0]"] ;
873 -> 879 ;
880 [label="minX <= -1.0876\nentropy = 0.0165\nsamples = 5217\nvalue = [8, 5209]"] ;
872 -> 880 ;
881 [label="medianX <= -0.9167\nentropy = 0.1274\nsamples = 228\nvalue = [4, 224]"] ;
880 -> 881 ;
882 [label="medianZ <= 10.2535\nentropy = 0.0485\nsamples = 185\nvalue = [1, 184]"] ;
881 -> 882 ;
883 [label="entropy = 0.0\nsamples = 175\nvalue = [0, 175]"] ;
882 -> 883 ;
884 [label="mean Y <= -0.7573\nentropy = 0.469\nsamples = 10\nvalue = [1, 9]"] ;
882 -> 884 ;
885 [label="entropy = 0.0\nsamples = 1\nvalue = [1, 0]"] ;
884 -> 885 ;
886 [label="entropy = 0.0\nsamples = 9\nvalue = [0, 9]"] ;
884 -> 886 ;
887 [label="medianY <= 0.2215\nentropy = 0.3651\nsamples = 43\nvalue = [3, 40]"] ;
881 -> 887 ;
888 [label="entropy = 0.0\nsamples = 29\nvalue = [0, 29]"] ;
887 -> 888 ;
889 [label="mean Z <= 9.7678\nentropy = 0.7496\nsamples = 14\nvalue = [3, 11]"] ;
887 -> 889 ;
890 [label="entropy = 0.0\nsamples = 7\nvalue = [0, 7]"] ;
889 -> 890 ;
891 [label="minY <= 0.1056\nentropy = 0.9852\nsamples = 7\nvalue = [3, 4]"] ;
889 -> 891 ;
892 [label="entropy = 0.0\nsamples = 4\nvalue = [0, 4]"] ;
891 -> 892 ;
893 [label="entropy = 0.0\nsamples = 3\nvalue = [3, 0]"] ;
891 -> 893 ;
894 [label="magnitude <= 9.7701\nentropy = 0.0094\nsamples = 4989\nvalue = [4, 4985]"] ;
880 -> 894 ;
895 [label="maxZ <= 10.3917\nentropy = 0.0219\nsamples = 1888\nvalue = [4, 1884]"] ;
894 -> 895 ;
896 [label="zeroX <= 11.5\nentropy = 0.0171\nsamples = 1887\nvalue = [3, 1884]"] ;
895 -> 896 ;
897 [label="magnitude <= 9.7701\nentropy = 0.0067\nsamples = 1834\nvalue = [1, 1833]"] ;
896 -> 897 ;
898 [label="entropy = 0.0\nsamples = 1833\nvalue = [0, 1833]"] ;
897 -> 898 ;
899 [label="entropy = 0.0\nsamples = 1\nvalue = [1, 0]"] ;
897 -> 899 ;
900 [label="mean Z <= 9.5497\nentropy = 0.2318\nsamples = 53\nvalue = [2, 51]"] ;
896 -> 900 ;
901 [label="entropy = 0.0\nsamples = 48\nvalue = [0, 48]"] ;
900 -> 901 ;
902 [label="mean Z <= 9.5865\nentropy = 0.971\nsamples = 5\nvalue = [2, 3]"] ;
900 -> 902 ;
903 [label="entropy = 0.0\nsamples = 2\nvalue = [2, 0]"] ;
902 -> 903 ;
904 [label="entropy = 0.0\nsamples = 3\nvalue = [0, 3]"] ;
902 -> 904 ;
905 [label="entropy = 0.0\nsamples = 1\nvalue = [1, 0]"] ;
895 -> 905 ;
906 [label="entropy = 0.0\nsamples = 3101\nvalue = [0, 3101]"] ;
894 -> 906 ;
907 [label="mean Y <= -0.2527\nentropy = 0.9544\nsamples = 8\nvalue = [3, 5]"] ;
871 -> 907 ;
908 [label="entropy = 0.0\nsamples = 3\nvalue = [3, 0]"] ;
907 -> 908 ;
909 [label="entropy = 0.0\nsamples = 5\nvalue = [0, 5]"] ;
907 -> 909 ;
910 [label="minY <= -1.112\nentropy = 0.1807\nsamples = 1538\nvalue = [42, 1496]"] ;
842 -> 910 ;
911 [label="meanCX <= 7.5\nentropy = 0.3136\nsamples = 442\nvalue = [25, 417]"] ;
910 -> 911 ;
912 [label="magnitude <= 10.3715\nentropy = 0.3487\nsamples = 382\nvalue = [25, 357]"] ;
911 -> 912 ;
913 [label="meanCY <= 2.5\nentropy = 0.2951\nsamples = 365\nvalue = [19, 346]"] ;
912 -> 913 ;
914 [label="minZ <= 8.5243\nentropy = 0.4812\nsamples = 77\nvalue = [8, 69]"] ;
913 -> 914 ;
915 [label="entropy = 0.0\nsamples = 1\nvalue = [1, 0]"] ;
914 -> 915 ;
916 [label="maxX <= 0.5713\nentropy = 0.4435\nsamples = 76\nvalue = [7, 69]"] ;
914 -> 916 ;
917 [label="minY <= -2.4028\nentropy = 0.6632\nsamples = 29\nvalue = [5, 24]"] ;
916 -> 917 ;
918 [label="entropy = 0.0\nsamples = 9\nvalue = [0, 9]"] ;
917 -> 918 ;
919 [label="Variance Y <= 0.7463\nentropy = 0.8113\nsamples = 20\nvalue = [5, 15]"] ;
917 -> 919 ;
920 [label="medianZ <= 9.334\nentropy = 0.65\nsamples = 18\nvalue = [3, 15]"] ;
919 -> 920 ;
921 [label="zeroY <= 2.0\nentropy = 0.9183\nsamples = 3\nvalue = [2, 1]"] ;
920 -> 921 ;
922 [label="entropy = 0.0\nsamples = 2\nvalue = [2, 0]"] ;
921 -> 922 ;
923 [label="entropy = 0.0\nsamples = 1\nvalue = [0, 1]"] ;
921 -> 923 ;
924 [label="maxZ <= 10.5232\nentropy = 0.3534\nsamples = 15\nvalue = [1, 14]"] ;
920 -> 924 ;
925 [label="entropy = 0.0\nsamples = 12\nvalue = [0, 12]"] ;
924 -> 925 ;
926 [label="maxX <= -0.359\nentropy = 0.9183\nsamples = 3\nvalue = [1, 2]"] ;
924 -> 926 ;
927 [label="entropy = 0.0\nsamples = 2\nvalue = [0, 2]"] ;
926 -> 927 ;
928 [label="entropy = 0.0\nsamples = 1\nvalue = [1, 0]"] ;
926 -> 928 ;
929 [label="entropy = 0.0\nsamples = 2\nvalue = [2, 0]"] ;
919 -> 929 ;
930 [label="minX <= 0.333\nentropy = 0.2539\nsamples = 47\nvalue = [2, 45]"] ;
916 -> 930 ;
931 [label="entropy = 0.0\nsamples = 34\nvalue = [0, 34]"] ;
930 -> 931 ;
932 [label="maxX <= 1.3703\nentropy = 0.6194\nsamples = 13\nvalue = [2, 11]"] ;
930 -> 932 ;
933 [label="entropy = 0.0\nsamples = 1\nvalue = [1, 0]"] ;
932 -> 933 ;
934 [label="medianZ <= 9.7781\nentropy = 0.4138\nsamples = 12\nvalue = [1, 11]"] ;
932 -> 934 ;
935 [label="entropy = 0.0\nsamples = 9\nvalue = [0, 9]"] ;
934 -> 935 ;
936 [label="maxY <= -0.873\nentropy = 0.9183\nsamples = 3\nvalue = [1, 2]"] ;
934 -> 936 ;
937 [label="entropy = 0.0\nsamples = 1\nvalue = [1, 0]"] ;
936 -> 937 ;
938 [label="entropy = 0.0\nsamples = 2\nvalue = [0, 2]"] ;
936 -> 938 ;
939 [label="entropy <= -180.0699\nentropy = 0.234\nsamples = 288\nvalue = [11, 277]"] ;
913 -> 939 ;
940 [label="entropy = 0.0\nsamples = 83\nvalue = [0, 83]"] ;
939 -> 940 ;
941 [label="medianZ <= 9.7158\nentropy = 0.3017\nsamples = 205\nvalue = [11, 194]"] ;
939 -> 941 ;
942 [label="minY <= -4.89\nentropy = 0.1802\nsamples = 147\nvalue = [4, 143]"] ;
941 -> 942 ;
943 [label="zeroX <= 1.0\nentropy = 0.9183\nsamples = 3\nvalue = [1, 2]"] ;
942 -> 943 ;
944 [label="entropy = 0.0\nsamples = 1\nvalue = [1, 0]"] ;
943 -> 944 ;
945 [label="entropy = 0.0\nsamples = 2\nvalue = [0, 2]"] ;
943 -> 945 ;
946 [label="Variance X <= 0.989\nentropy = 0.1461\nsamples = 144\nvalue = [3, 141]"] ;
942 -> 946 ;
947 [label="maxX <= 3.92\nentropy = 0.0639\nsamples = 133\nvalue = [1, 132]"] ;
946 -> 947 ;
948 [label="entropy = 0.0\nsamples = 126\nvalue = [0, 126]"] ;
947 -> 948 ;
949 [label="medianY <= -1.6258\nentropy = 0.5917\nsamples = 7\nvalue = [1, 6]"] ;
947 -> 949 ;
950 [label="Variance X <= 0.4451\nentropy = 1.0\nsamples = 2\nvalue = [1, 1]"] ;
949 -> 950 ;
951 [label="entropy = 0.0\nsamples = 1\nvalue = [1, 0]"] ;
950 -> 951 ;
952 [label="entropy = 0.0\nsamples = 1\nvalue = [0, 1]"] ;
950 -> 952 ;
953 [label="entropy = 0.0\nsamples = 5\nvalue = [0, 5]"] ;
949 -> 953 ;
954 [label="minY <= -2.2212\nentropy = 0.684\nsamples = 11\nvalue = [2, 9]"] ;
946 -> 954 ;
955 [label="entropy = 0.0\nsamples = 7\nvalue = [0, 7]"] ;
954 -> 955 ;
956 [label="maxX <= 1.2249\nentropy = 1.0\nsamples = 4\nvalue = [2, 2]"] ;
954 -> 956 ;
957 [label="entropy = 0.0\nsamples = 2\nvalue = [0, 2]"] ;
956 -> 957 ;
958 [label="entropy = 0.0\nsamples = 2\nvalue = [2, 0]"] ;
956 -> 958 ;
959 [label="zeroY <= 1.5\nentropy = 0.5313\nsamples = 58\nvalue = [7, 51]"] ;
941 -> 959 ;
960 [label="magnitude <= 9.8508\nentropy = 0.7706\nsamples = 31\nvalue = [7, 24]"] ;
959 -> 960 ;
961 [label="mean Y <= -1.1496\nentropy = 0.9852\nsamples = 7\nvalue = [4, 3]"] ;
960 -> 961 ;
962 [label="entropy = 0.0\nsamples = 3\nvalue = [3, 0]"] ;
961 -> 962 ;
963 [label="maxY <= -0.7368\nentropy = 0.8113\nsamples = 4\nvalue = [1, 3]"] ;
961 -> 963 ;
964 [label="entropy = 0.0\nsamples = 1\nvalue = [1, 0]"] ;
963 -> 964 ;
965 [label="entropy = 0.0\nsamples = 3\nvalue = [0, 3]"] ;
963 -> 965 ;
966 [label="minX <= -0.3166\nentropy = 0.5436\nsamples = 24\nvalue = [3, 21]"] ;
960 -> 966 ;
967 [label="magnitude <= 10.2144\nentropy = 0.7219\nsamples = 15\nvalue = [3, 12]"] ;
966 -> 967 ;
968 [label="maxX <= 1.5209\nentropy = 0.9183\nsamples = 9\nvalue = [3, 6]"] ;
967 -> 968 ;
969 [label="minY <= -3.5751\nentropy = 1.0\nsamples = 6\nvalue = [3, 3]"] ;
968 -> 969 ;
970 [label="entropy = 0.0\nsamples = 1\nvalue = [1, 0]"] ;
969 -> 970 ;
971 [label="Variance X <= 0.1764\nentropy = 0.971\nsamples = 5\nvalue = [2, 3]"] ;
969 -> 971 ;
972 [label="entropy = 0.0\nsamples = 2\nvalue = [0, 2]"] ;
971 -> 972 ;
973 [label="Variance Y <= 0.2082\nentropy = 0.9183\nsamples = 3\nvalue = [2, 1]"] ;
971 -> 973 ;
974 [label="entropy = 0.0\nsamples = 2\nvalue = [2, 0]"] ;
973 -> 974 ;
975 [label="entropy = 0.0\nsamples = 1\nvalue = [0, 1]"] ;
973 -> 975 ;
976 [label="entropy = 0.0\nsamples = 3\nvalue = [0, 3]"] ;
968 -> 976 ;
977 [label="entropy = 0.0\nsamples = 6\nvalue = [0, 6]"] ;
967 -> 977 ;
978 [label="entropy = 0.0\nsamples = 9\nvalue = [0, 9]"] ;
966 -> 978 ;
979 [label="entropy = 0.0\nsamples = 27\nvalue = [0, 27]"] ;
959 -> 979 ;
980 [label="medianX <= -0.246\nentropy = 0.9367\nsamples = 17\nvalue = [6, 11]"] ;
912 -> 980 ;
981 [label="minZ <= 8.6073\nentropy = 0.65\nsamples = 12\nvalue = [2, 10]"] ;
980 -> 981 ;
982 [label="entropy = 0.0\nsamples = 1\nvalue = [1, 0]"] ;
981 -> 982 ;
983 [label="maxX <= -0.4727\nentropy = 0.4395\nsamples = 11\nvalue = [1, 10]"] ;
981 -> 983 ;
984 [label="minY <= -1.5933\nentropy = 0.8113\nsamples = 4\nvalue = [1, 3]"] ;
983 -> 984 ;
985 [label="entropy = 0.0\nsamples = 3\nvalue = [0, 3]"] ;
984 -> 985 ;
986 [label="entropy = 0.0\nsamples = 1\nvalue = [1, 0]"] ;
984 -> 986 ;
987 [label="entropy = 0.0\nsamples = 7\nvalue = [0, 7]"] ;
983 -> 987 ;
988 [label="zeroX <= 0.5\nentropy = 0.7219\nsamples = 5\nvalue = [4, 1]"] ;
980 -> 988 ;
989 [label="entropy = 0.0\nsamples = 2\nvalue = [2, 0]"] ;
988 -> 989 ;
990 [label="minZ <= 9.5547\nentropy = 0.9183\nsamples = 3\nvalue = [2, 1]"] ;
988 -> 990 ;
991 [label="entropy = 0.0\nsamples = 1\nvalue = [0, 1]"] ;
990 -> 991 ;
992 [label="entropy = 0.0\nsamples = 2\nvalue = [2, 0]"] ;
990 -> 992 ;
993 [label="entropy = 0.0\nsamples = 60\nvalue = [0, 60]"] ;
911 -> 993 ;
994 [label="mean Z <= 9.285\nentropy = 0.1154\nsamples = 1096\nvalue = [17, 1079]"] ;
910 -> 994 ;
995 [label="Variance Y <= 0.0227\nentropy = 0.7871\nsamples = 17\nvalue = [4, 13]"] ;
994 -> 995 ;
996 [label="entropy = 0.0\nsamples = 2\nvalue = [2, 0]"] ;
995 -> 996 ;
997 [label="zeroY <= 3.5\nentropy = 0.5665\nsamples = 15\nvalue = [2, 13]"] ;
995 -> 997 ;
998 [label="entropy = 0.0\nsamples = 10\nvalue = [0, 10]"] ;
997 -> 998 ;
999 [label="minX <= -3.1471\nentropy = 0.971\nsamples = 5\nvalue = [2, 3]"] ;
997 -> 999 ;
1000 [label="entropy = 0.0\nsamples = 2\nvalue = [0, 2]"] ;
999 -> 1000 ;
1001 [label="maxY <= 0.5756\nentropy = 0.9183\nsamples = 3\nvalue = [2, 1]"] ;
999 -> 1001 ;
1002 [label="entropy = 0.0\nsamples = 2\nvalue = [2, 0]"] ;
1001 -> 1002 ;
1003 [label="entropy = 0.0\nsamples = 1\nvalue = [0, 1]"] ;
1001 -> 1003 ;
1004 [label="minX <= 2.3621\nentropy = 0.0941\nsamples = 1079\nvalue = [13, 1066]"] ;
994 -> 1004 ;
1005 [label="medianY <= 0.3193\nentropy = 0.0822\nsamples = 1077\nvalue = [11, 1066]"] ;
1004 -> 1005 ;
1006 [label="maxZ <= 11.4348\nentropy = 0.0501\nsamples = 890\nvalue = [5, 885]"] ;
1005 -> 1006 ;
1007 [label="meanCY <= 1.5\nentropy = 0.0416\nsamples = 889\nvalue = [4, 885]"] ;
1006 -> 1007 ;
1008 [label="meanCX <= 2.5\nentropy = 0.2975\nsamples = 38\nvalue = [2, 36]"] ;
1007 -> 1008 ;
1009 [label="mean Z <= 9.5709\nentropy = 0.5665\nsamples = 15\nvalue = [2, 13]"] ;
1008 -> 1009 ;
1010 [label="entropy = 0.0\nsamples = 2\nvalue = [2, 0]"] ;
1009 -> 1010 ;
1011 [label="entropy = 0.0\nsamples = 13\nvalue = [0, 13]"] ;
1009 -> 1011 ;
1012 [label="entropy = 0.0\nsamples = 23\nvalue = [0, 23]"] ;
1008 -> 1012 ;
1013 [label="Variance X <= 0.1708\nentropy = 0.0239\nsamples = 851\nvalue = [2, 849]"] ;
1007 -> 1013 ;
1014 [label="entropy = 0.0\nsamples = 700\nvalue = [0, 700]"] ;
1013 -> 1014 ;
1015 [label="mean Z <= 10.2294\nentropy = 0.1016\nsamples = 151\nvalue = [2, 149]"] ;
1013 -> 1015 ;
1016 [label="maxX <= -0.0669\nentropy = 0.0605\nsamples = 142\nvalue = [1, 141]"] ;
1015 -> 1016 ;
1017 [label="minX <= -1.6181\nentropy = 0.5033\nsamples = 9\nvalue = [1, 8]"] ;
1016 -> 1017 ;
1018 [label="entropy = 0.0\nsamples = 8\nvalue = [0, 8]"] ;
1017 -> 1018 ;
1019 [label="entropy = 0.0\nsamples = 1\nvalue = [1, 0]"] ;
1017 -> 1019 ;
1020 [label="entropy = 0.0\nsamples = 133\nvalue = [0, 133]"] ;
1016 -> 1020 ;
1021 [label="mean Y <= -0.2648\nentropy = 0.5033\nsamples = 9\nvalue = [1, 8]"] ;
1015 -> 1021 ;
1022 [label="entropy = 0.0\nsamples = 1\nvalue = [1, 0]"] ;
1021 -> 1022 ;
1023 [label="entropy = 0.0\nsamples = 8\nvalue = [0, 8]"] ;
1021 -> 1023 ;
1024 [label="entropy = 0.0\nsamples = 1\nvalue = [1, 0]"] ;
1006 -> 1024 ;
1025 [label="medianZ <= 9.5592\nentropy = 0.2047\nsamples = 187\nvalue = [6, 181]"] ;
1005 -> 1025 ;
1026 [label="entropy = 0.0\nsamples = 52\nvalue = [0, 52]"] ;
1025 -> 1026 ;
1027 [label="Variance X <= 0.5179\nentropy = 0.2623\nsamples = 135\nvalue = [6, 129]"] ;
1025 -> 1027 ;
1028 [label="medianX <= -0.7583\nentropy = 0.1959\nsamples = 132\nvalue = [4, 128]"] ;
1027 -> 1028 ;
1029 [label="medianZ <= 9.7559\nentropy = 0.6723\nsamples = 17\nvalue = [3, 14]"] ;
1028 -> 1029 ;
1030 [label="entropy = 0.0\nsamples = 8\nvalue = [0, 8]"] ;
1029 -> 1030 ;
1031 [label="magnitude <= 9.9166\nentropy = 0.9183\nsamples = 9\nvalue = [3, 6]"] ;
1029 -> 1031 ;
1032 [label="maxY <= 0.7994\nentropy = 0.8113\nsamples = 4\nvalue = [3, 1]"] ;
1031 -> 1032 ;
1033 [label="entropy = 0.0\nsamples = 1\nvalue = [0, 1]"] ;
1032 -> 1033 ;
1034 [label="entropy = 0.0\nsamples = 3\nvalue = [3, 0]"] ;
1032 -> 1034 ;
1035 [label="entropy = 0.0\nsamples = 5\nvalue = [0, 5]"] ;
1031 -> 1035 ;
1036 [label="minX <= 1.1325\nentropy = 0.072\nsamples = 115\nvalue = [1, 114]"] ;
1028 -> 1036 ;
1037 [label="entropy = 0.0\nsamples = 110\nvalue = [0, 110]"] ;
1036 -> 1037 ;
1038 [label="Variance Z <= 0.0307\nentropy = 0.7219\nsamples = 5\nvalue = [1, 4]"] ;
1036 -> 1038 ;
1039 [label="entropy = 0.0\nsamples = 1\nvalue = [1, 0]"] ;
1038 -> 1039 ;
1040 [label="entropy = 0.0\nsamples = 4\nvalue = [0, 4]"] ;
1038 -> 1040 ;
1041 [label="mean X <= -0.375\nentropy = 0.9183\nsamples = 3\nvalue = [2, 1]"] ;
1027 -> 1041 ;
1042 [label="entropy = 0.0\nsamples = 1\nvalue = [0, 1]"] ;
1041 -> 1042 ;
1043 [label="entropy = 0.0\nsamples = 2\nvalue = [2, 0]"] ;
1041 -> 1043 ;
1044 [label="entropy = 0.0\nsamples = 2\nvalue = [2, 0]"] ;
1004 -> 1044 ;
1045 [label="magnitude <= 10.2031\nentropy = 0.4537\nsamples = 714\nvalue = [68, 646]"] ;
833 -> 1045 ;
1046 [label="maxX <= 0.332\nentropy = 0.2982\nsamples = 606\nvalue = [32, 574]"] ;
1045 -> 1046 ;
1047 [label="minX <= -1.7267\nentropy = 0.5127\nsamples = 140\nvalue = [16, 124]"] ;
1046 -> 1047 ;
1048 [label="entropy = 0.0\nsamples = 38\nvalue = [0, 38]"] ;
1047 -> 1048 ;
1049 [label="magnitude <= 9.9346\nentropy = 0.6268\nsamples = 102\nvalue = [16, 86]"] ;
1047 -> 1049 ;
1050 [label="magnitude <= 9.5403\nentropy = 0.7813\nsamples = 69\nvalue = [16, 53]"] ;
1049 -> 1050 ;
1051 [label="entropy = 0.0\nsamples = 22\nvalue = [0, 22]"] ;
1050 -> 1051 ;
1052 [label="magnitude <= 9.5891\nentropy = 0.9252\nsamples = 47\nvalue = [16, 31]"] ;
1050 -> 1052 ;
1053 [label="FFTX <= -0.0469\nentropy = 0.8454\nsamples = 11\nvalue = [8, 3]"] ;
1052 -> 1053 ;
1054 [label="entropy = 0.0\nsamples = 1\nvalue = [0, 1]"] ;
1053 -> 1054 ;
1055 [label="maxZ <= 9.5826\nentropy = 0.7219\nsamples = 10\nvalue = [8, 2]"] ;
1053 -> 1055 ;
1056 [label="entropy = 0.0\nsamples = 8\nvalue = [8, 0]"] ;
1055 -> 1056 ;
1057 [label="entropy = 0.0\nsamples = 2\nvalue = [0, 2]"] ;
1055 -> 1057 ;
1058 [label="mean Y <= 1.2434\nentropy = 0.7642\nsamples = 36\nvalue = [8, 28]"] ;
1052 -> 1058 ;
1059 [label="entropy <= -167.5773\nentropy = 0.9587\nsamples = 21\nvalue = [8, 13]"] ;
1058 -> 1059 ;
1060 [label="meanCZ <= 13.0\nentropy = 0.4395\nsamples = 11\nvalue = [1, 10]"] ;
1059 -> 1060 ;
1061 [label="entropy = 0.0\nsamples = 10\nvalue = [0, 10]"] ;
1060 -> 1061 ;
1062 [label="entropy = 0.0\nsamples = 1\nvalue = [1, 0]"] ;
1060 -> 1062 ;
1063 [label="magnitude <= 9.7398\nentropy = 0.8813\nsamples = 10\nvalue = [7, 3]"] ;
1059 -> 1063 ;
1064 [label="entropy = 0.0\nsamples = 2\nvalue = [0, 2]"] ;
1063 -> 1064 ;
1065 [label="meanCZ <= 4.5\nentropy = 0.5436\nsamples = 8\nvalue = [7, 1]"] ;
1063 -> 1065 ;
1066 [label="entropy = 0.0\nsamples = 1\nvalue = [0, 1]"] ;
1065 -> 1066 ;
1067 [label="entropy = 0.0\nsamples = 7\nvalue = [7, 0]"] ;
1065 -> 1067 ;
1068 [label="entropy = 0.0\nsamples = 15\nvalue = [0, 15]"] ;
1058 -> 1068 ;
1069 [label="entropy = 0.0\nsamples = 33\nvalue = [0, 33]"] ;
1049 -> 1069 ;
1070 [label="mean Y <= 0.2219\nentropy = 0.2157\nsamples = 466\nvalue = [16, 450]"] ;
1046 -> 1070 ;
1071 [label="maxZ <= 11.0507\nentropy = 0.6931\nsamples = 43\nvalue = [8, 35]"] ;
1070 -> 1071 ;
1072 [label="minZ <= 8.6819\nentropy = 0.4771\nsamples = 39\nvalue = [4, 35]"] ;
1071 -> 1072 ;
1073 [label="meanCZ <= 3.0\nentropy = 0.8631\nsamples = 14\nvalue = [4, 10]"] ;
1072 -> 1073 ;
1074 [label="entropy = 0.0\nsamples = 1\nvalue = [1, 0]"] ;
1073 -> 1074 ;
1075 [label="entropy <= -158.2021\nentropy = 0.7793\nsamples = 13\nvalue = [3, 10]"] ;
1073 -> 1075 ;
1076 [label="entropy = 0.0\nsamples = 5\nvalue = [0, 5]"] ;
1075 -> 1076 ;
1077 [label="FFTY <= -0.0625\nentropy = 0.9544\nsamples = 8\nvalue = [3, 5]"] ;
1075 -> 1077 ;
1078 [label="entropy = 0.0\nsamples = 2\nvalue = [0, 2]"] ;
1077 -> 1078 ;
1079 [label="meanCZ <= 6.5\nentropy = 1.0\nsamples = 6\nvalue = [3, 3]"] ;
1077 -> 1079 ;
1080 [label="medianZ <= 9.7907\nentropy = 0.8113\nsamples = 4\nvalue = [1, 3]"] ;
1079 -> 1080 ;
1081 [label="entropy = 0.0\nsamples = 3\nvalue = [0, 3]"] ;
1080 -> 1081 ;
1082 [label="entropy = 0.0\nsamples = 1\nvalue = [1, 0]"] ;
1080 -> 1082 ;
1083 [label="entropy = 0.0\nsamples = 2\nvalue = [2, 0]"] ;
1079 -> 1083 ;
1084 [label="entropy = 0.0\nsamples = 25\nvalue = [0, 25]"] ;
1072 -> 1084 ;
1085 [label="entropy = 0.0\nsamples = 4\nvalue = [4, 0]"] ;
1071 -> 1085 ;
1086 [label="meanCY <= 4.5\nentropy = 0.1353\nsamples = 423\nvalue = [8, 415]"] ;
1070 -> 1086 ;
1087 [label="entropy = 0.0\nsamples = 209\nvalue = [0, 209]"] ;
1086 -> 1087 ;
1088 [label="meanCZ <= 4.5\nentropy = 0.2302\nsamples = 214\nvalue = [8, 206]"] ;
1086 -> 1088 ;
1089 [label="meanCX <= 5.5\nentropy = 0.9183\nsamples = 9\nvalue = [3, 6]"] ;
1088 -> 1089 ;
1090 [label="Variance Z <= 0.0861\nentropy = 0.65\nsamples = 6\nvalue = [1, 5]"] ;
1089 -> 1090 ;
1091 [label="entropy = 0.0\nsamples = 4\nvalue = [0, 4]"] ;
1090 -> 1091 ;
1092 [label="mean Z <= 9.6937\nentropy = 1.0\nsamples = 2\nvalue = [1, 1]"] ;
1090 -> 1092 ;
1093 [label="entropy = 0.0\nsamples = 1\nvalue = [0, 1]"] ;
1092 -> 1093 ;
1094 [label="entropy = 0.0\nsamples = 1\nvalue = [1, 0]"] ;
1092 -> 1094 ;
1095 [label="Variance X <= 0.12\nentropy = 0.9183\nsamples = 3\nvalue = [2, 1]"] ;
1089 -> 1095 ;
1096 [label="entropy = 0.0\nsamples = 2\nvalue = [2, 0]"] ;
1095 -> 1096 ;
1097 [label="entropy = 0.0\nsamples = 1\nvalue = [0, 1]"] ;
1095 -> 1097 ;
1098 [label="Variance Z <= 0.0777\nentropy = 0.1654\nsamples = 205\nvalue = [5, 200]"] ;
1088 -> 1098 ;
1099 [label="mean X <= 1.8858\nentropy = 0.2273\nsamples = 136\nvalue = [5, 131]"] ;
1098 -> 1099 ;
1100 [label="entropy = 0.0\nsamples = 95\nvalue = [0, 95]"] ;
1099 -> 1100 ;
1101 [label="zeroY <= 1.0\nentropy = 0.5349\nsamples = 41\nvalue = [5, 36]"] ;
1099 -> 1101 ;
1102 [label="entropy <= -180.3756\nentropy = 0.469\nsamples = 40\nvalue = [4, 36]"] ;
1101 -> 1102 ;
1103 [label="entropy = 0.0\nsamples = 18\nvalue = [0, 18]"] ;
1102 -> 1103 ;
1104 [label="mean Z <= 9.2709\nentropy = 0.684\nsamples = 22\nvalue = [4, 18]"] ;
1102 -> 1104 ;
1105 [label="minZ <= 8.4679\nentropy = 0.3373\nsamples = 16\nvalue = [1, 15]"] ;
1104 -> 1105 ;
1106 [label="maxZ <= 9.2097\nentropy = 1.0\nsamples = 2\nvalue = [1, 1]"] ;
1105 -> 1106 ;
1107 [label="entropy = 0.0\nsamples = 1\nvalue = [0, 1]"] ;
1106 -> 1107 ;
1108 [label="entropy = 0.0\nsamples = 1\nvalue = [1, 0]"] ;
1106 -> 1108 ;
1109 [label="entropy = 0.0\nsamples = 14\nvalue = [0, 14]"] ;
1105 -> 1109 ;
1110 [label="magnitude <= 9.8338\nentropy = 1.0\nsamples = 6\nvalue = [3, 3]"] ;
1104 -> 1110 ;
1111 [label="entropy = 0.0\nsamples = 3\nvalue = [3, 0]"] ;
1110 -> 1111 ;
1112 [label="entropy = 0.0\nsamples = 3\nvalue = [0, 3]"] ;
1110 -> 1112 ;
1113 [label="entropy = 0.0\nsamples = 1\nvalue = [1, 0]"] ;
1101 -> 1113 ;
1114 [label="entropy = 0.0\nsamples = 69\nvalue = [0, 69]"] ;
1098 -> 1114 ;
1115 [label="medianZ <= 9.9647\nentropy = 0.9183\nsamples = 108\nvalue = [36, 72]"] ;
1045 -> 1115 ;
1116 [label="medianX <= 3.1133\nentropy = 1.0\nsamples = 50\nvalue = [25, 25]"] ;
1115 -> 1116 ;
1117 [label="magnitude <= 10.4047\nentropy = 0.9945\nsamples = 46\nvalue = [25, 21]"] ;
1116 -> 1117 ;
1118 [label="maxZ <= 9.3038\nentropy = 0.9745\nsamples = 32\nvalue = [13, 19]"] ;
1117 -> 1118 ;
1119 [label="entropy = 0.0\nsamples = 5\nvalue = [5, 0]"] ;
1118 -> 1119 ;
1120 [label="meanCX <= 6.5\nentropy = 0.8767\nsamples = 27\nvalue = [8, 19]"] ;
1118 -> 1120 ;
1121 [label="Variance Y <= 0.0218\nentropy = 0.7554\nsamples = 23\nvalue = [5, 18]"] ;
1120 -> 1121 ;
1122 [label="entropy = 0.0\nsamples = 2\nvalue = [2, 0]"] ;
1121 -> 1122 ;
1123 [label="FFTX <= 0.0156\nentropy = 0.5917\nsamples = 21\nvalue = [3, 18]"] ;
1121 -> 1123 ;
1124 [label="medianX <= 1.7272\nentropy = 0.9544\nsamples = 8\nvalue = [3, 5]"] ;
1123 -> 1124 ;
1125 [label="entropy = 0.0\nsamples = 4\nvalue = [0, 4]"] ;
1124 -> 1125 ;
1126 [label="maxX <= 2.918\nentropy = 0.8113\nsamples = 4\nvalue = [3, 1]"] ;
1124 -> 1126 ;
1127 [label="entropy = 0.0\nsamples = 2\nvalue = [2, 0]"] ;
1126 -> 1127 ;
1128 [label="minY <= 1.8762\nentropy = 1.0\nsamples = 2\nvalue = [1, 1]"] ;
1126 -> 1128 ;
1129 [label="entropy = 0.0\nsamples = 1\nvalue = [0, 1]"] ;
1128 -> 1129 ;
1130 [label="entropy = 0.0\nsamples = 1\nvalue = [1, 0]"] ;
1128 -> 1130 ;
1131 [label="entropy = 0.0\nsamples = 13\nvalue = [0, 13]"] ;
1123 -> 1131 ;
1132 [label="minX <= 0.1583\nentropy = 0.8113\nsamples = 4\nvalue = [3, 1]"] ;
1120 -> 1132 ;
1133 [label="entropy = 0.0\nsamples = 3\nvalue = [3, 0]"] ;
1132 -> 1133 ;
1134 [label="entropy = 0.0\nsamples = 1\nvalue = [0, 1]"] ;
1132 -> 1134 ;
1135 [label="FFTX <= 0.0156\nentropy = 0.5917\nsamples = 14\nvalue = [12, 2]"] ;
1117 -> 1135 ;
1136 [label="entropy = 0.0\nsamples = 9\nvalue = [9, 0]"] ;
1135 -> 1136 ;
1137 [label="entropy <= -139.8927\nentropy = 0.971\nsamples = 5\nvalue = [3, 2]"] ;
1135 -> 1137 ;
1138 [label="entropy = 0.0\nsamples = 3\nvalue = [3, 0]"] ;
1137 -> 1138 ;
1139 [label="entropy = 0.0\nsamples = 2\nvalue = [0, 2]"] ;
1137 -> 1139 ;
1140 [label="entropy = 0.0\nsamples = 4\nvalue = [0, 4]"] ;
1116 -> 1140 ;
1141 [label="maxZ <= 11.151\nentropy = 0.7007\nsamples = 58\nvalue = [11, 47]"] ;
1115 -> 1141 ;
1142 [label="mean Y <= -0.6088\nentropy = 0.4138\nsamples = 48\nvalue = [4, 44]"] ;
1141 -> 1142 ;
1143 [label="entropy = 0.0\nsamples = 1\nvalue = [1, 0]"] ;
1142 -> 1143 ;
1144 [label="minY <= 1.6402\nentropy = 0.3425\nsamples = 47\nvalue = [3, 44]"] ;
1142 -> 1144 ;
1145 [label="meanCY <= 3.5\nentropy = 0.258\nsamples = 46\nvalue = [2, 44]"] ;
1144 -> 1145 ;
1146 [label="medianY <= 0.9665\nentropy = 0.5226\nsamples = 17\nvalue = [2, 15]"] ;
1145 -> 1146 ;
1147 [label="entropy <= -162.8545\nentropy = 0.9183\nsamples = 6\nvalue = [2, 4]"] ;
1146 -> 1147 ;
1148 [label="entropy = 0.0\nsamples = 2\nvalue = [2, 0]"] ;
1147 -> 1148 ;
1149 [label="entropy = 0.0\nsamples = 4\nvalue = [0, 4]"] ;
1147 -> 1149 ;
1150 [label="entropy = 0.0\nsamples = 11\nvalue = [0, 11]"] ;
1146 -> 1150 ;
1151 [label="entropy = 0.0\nsamples = 29\nvalue = [0, 29]"] ;
1145 -> 1151 ;
1152 [label="entropy = 0.0\nsamples = 1\nvalue = [1, 0]"] ;
1144 -> 1152 ;
1153 [label="medianX <= -0.3124\nentropy = 0.8813\nsamples = 10\nvalue = [7, 3]"] ;
1141 -> 1153 ;
1154 [label="entropy = 0.0\nsamples = 1\nvalue = [0, 1]"] ;
1153 -> 1154 ;
1155 [label="magnitude <= 10.5875\nentropy = 0.7642\nsamples = 9\nvalue = [7, 2]"] ;
1153 -> 1155 ;
1156 [label="maxZ <= 11.1758\nentropy = 1.0\nsamples = 4\nvalue = [2, 2]"] ;
1155 -> 1156 ;
1157 [label="entropy = 0.0\nsamples = 1\nvalue = [1, 0]"] ;
1156 -> 1157 ;
1158 [label="FFTX <= -0.1094\nentropy = 0.9183\nsamples = 3\nvalue = [1, 2]"] ;
1156 -> 1158 ;
1159 [label="entropy = 0.0\nsamples = 1\nvalue = [1, 0]"] ;
1158 -> 1159 ;
1160 [label="entropy = 0.0\nsamples = 2\nvalue = [0, 2]"] ;
1158 -> 1160 ;
1161 [label="entropy = 0.0\nsamples = 5\nvalue = [5, 0]"] ;
1155 -> 1161 ;
1162 [label="Variance Z <= 0.6379\nentropy = 0.2509\nsamples = 358\nvalue = [343, 15]"] ;
832 -> 1162 ;
1163 [label="entropy <= -144.5274\nentropy = 0.8329\nsamples = 53\nvalue = [39, 14]"] ;
1162 -> 1163 ;
1164 [label="mean Z <= 10.3663\nentropy = 0.9024\nsamples = 44\nvalue = [30, 14]"] ;
1163 -> 1164 ;
1165 [label="meanCY <= 4.5\nentropy = 0.971\nsamples = 20\nvalue = [8, 12]"] ;
1164 -> 1165 ;
1166 [label="FFTX <= 0.0156\nentropy = 0.9183\nsamples = 9\nvalue = [6, 3]"] ;
1165 -> 1166 ;
1167 [label="meanCZ <= 3.5\nentropy = 1.0\nsamples = 6\nvalue = [3, 3]"] ;
1166 -> 1167 ;
1168 [label="entropy = 0.0\nsamples = 2\nvalue = [0, 2]"] ;
1167 -> 1168 ;
1169 [label="mean Z <= 9.9783\nentropy = 0.8113\nsamples = 4\nvalue = [3, 1]"] ;
1167 -> 1169 ;
1170 [label="entropy = 0.0\nsamples = 1\nvalue = [0, 1]"] ;
1169 -> 1170 ;
1171 [label="entropy = 0.0\nsamples = 3\nvalue = [3, 0]"] ;
1169 -> 1171 ;
1172 [label="entropy = 0.0\nsamples = 3\nvalue = [3, 0]"] ;
1166 -> 1172 ;
1173 [label="Variance Y <= 0.3882\nentropy = 0.684\nsamples = 11\nvalue = [2, 9]"] ;
1165 -> 1173 ;
1174 [label="mean X <= 0.0138\nentropy = 1.0\nsamples = 4\nvalue = [2, 2]"] ;
1173 -> 1174 ;
1175 [label="entropy = 0.0\nsamples = 2\nvalue = [2, 0]"] ;
1174 -> 1175 ;
1176 [label="entropy = 0.0\nsamples = 2\nvalue = [0, 2]"] ;
1174 -> 1176 ;
1177 [label="entropy = 0.0\nsamples = 7\nvalue = [0, 7]"] ;
1173 -> 1177 ;
1178 [label="maxX <= 0.1564\nentropy = 0.4138\nsamples = 24\nvalue = [22, 2]"] ;
1164 -> 1178 ;
1179 [label="entropy <= -161.0919\nentropy = 0.9183\nsamples = 3\nvalue = [1, 2]"] ;
1178 -> 1179 ;
1180 [label="entropy = 0.0\nsamples = 2\nvalue = [0, 2]"] ;
1179 -> 1180 ;
1181 [label="entropy = 0.0\nsamples = 1\nvalue = [1, 0]"] ;
1179 -> 1181 ;
1182 [label="entropy = 0.0\nsamples = 21\nvalue = [21, 0]"] ;
1178 -> 1182 ;
1183 [label="entropy = 0.0\nsamples = 9\nvalue = [9, 0]"] ;
1163 -> 1183 ;
1184 [label="minX <= -4.849\nentropy = 0.0318\nsamples = 305\nvalue = [304, 1]"] ;
1162 -> 1184 ;
1185 [label="zeroY <= 6.5\nentropy = 0.2762\nsamples = 21\nvalue = [20, 1]"] ;
1184 -> 1185 ;
1186 [label="entropy = 0.0\nsamples = 20\nvalue = [20, 0]"] ;
1185 -> 1186 ;
1187 [label="entropy = 0.0\nsamples = 1\nvalue = [0, 1]"] ;
1185 -> 1187 ;
1188 [label="entropy = 0.0\nsamples = 284\nvalue = [284, 0]"] ;
1184 -> 1188 ;
}