digraph Tree {
node [shape=box] ;
0 [label="Variance Z <= 0.4994\nentropy = 0.9053\nsamples = 15940\nvalue = [5114, 10826]"] ;
1 [label="entropy <= -179.769\nentropy = 0.211\nsamples = 10521\nvalue = [351, 10170]"] ;
0 -> 1 [labeldistance=2.5, labelangle=45, headlabel="True"] ;
2 [label="Variance X <= 0.0012\nentropy = 0.0775\nsamples = 8000\nvalue = [76, 7924]"] ;
1 -> 2 ;
3 [label="entropy = 0.5159\nsamples = 390\nvalue = [45, 345]"] ;
2 -> 3 ;
4 [label="entropy = 0.0382\nsamples = 7610\nvalue = [31, 7579]"] ;
2 -> 4 ;
5 [label="magnitude <= 10.4395\nentropy = 0.4971\nsamples = 2521\nvalue = [275, 2246]"] ;
1 -> 5 ;
6 [label="entropy = 0.4407\nsamples = 2432\nvalue = [222, 2210]"] ;
5 -> 6 ;
7 [label="entropy = 0.9735\nsamples = 89\nvalue = [53, 36]"] ;
5 -> 7 ;
8 [label="maxZ <= 12.1434\nentropy = 0.5324\nsamples = 5419\nvalue = [4763, 656]"] ;
0 -> 8 [labeldistance=2.5, labelangle=-45, headlabel="False"] ;
9 [label="FFTX <= -0.4844\nentropy = 0.9569\nsamples = 1525\nvalue = [948, 577]"] ;
8 -> 9 ;
10 [label="entropy = 0.6862\nsamples = 186\nvalue = [34, 152]"] ;
9 -> 10 ;
11 [label="entropy = 0.9015\nsamples = 1339\nvalue = [914, 425]"] ;
9 -> 11 ;
12 [label="maxZ <= 14.2599\nentropy = 0.1431\nsamples = 3894\nvalue = [3815, 79]"] ;
8 -> 12 ;
13 [label="entropy = 0.2867\nsamples = 1318\nvalue = [1252, 66]"] ;
12 -> 13 ;
14 [label="entropy = 0.0458\nsamples = 2576\nvalue = [2563, 13]"] ;
12 -> 14 ;
}