digraph Tree {
node [shape=box] ;
0 [label="Variance X <= 0.3074\nentropy = 1.9988\nsamples = 3224\nvalue = [791, 863, 779, 791]"] ;
1 [label="Variance Z <= 0.0068\nentropy = 1.394\nsamples = 1624\nvalue = [722, 79, 774, 49]"] ;
0 -> 1 [labeldistance=2.5, labelangle=45, headlabel="True"] ;
2 [label="maxX <= -0.5221\nentropy = 0.054\nsamples = 722\nvalue = [3, 0, 718, 1]"] ;
1 -> 2 ;
3 [label="entropy = 0.0\nsamples = 3\nvalue = [3, 0, 0, 0]"] ;
2 -> 3 ;
4 [label="entropy = 0.0152\nsamples = 719\nvalue = [0, 0, 718, 1]"] ;
2 -> 4 ;
5 [label="maxZ <= 3.7383\nentropy = 1.0426\nsamples = 902\nvalue = [719, 79, 56, 48]"] ;
1 -> 5 ;
6 [label="entropy = 0.8123\nsamples = 829\nvalue = [710, 29, 56, 34]"] ;
5 -> 6 ;
7 [label="entropy = 1.2032\nsamples = 73\nvalue = [9, 50, 0, 14]"] ;
5 -> 7 ;
8 [label="medianX <= -0.7614\nentropy = 1.24\nsamples = 1600\nvalue = [69, 784, 5, 742]"] ;
0 -> 8 [labeldistance=2.5, labelangle=-45, headlabel="False"] ;
9 [label="Variance X <= 0.7996\nentropy = 1.0149\nsamples = 576\nvalue = [64, 70, 0, 442]"] ;
8 -> 9 ;
10 [label="entropy = 0.9861\nsamples = 80\nvalue = [62, 11, 0, 7]"] ;
9 -> 10 ;
11 [label="entropy = 0.5635\nsamples = 496\nvalue = [2, 59, 0, 435]"] ;
9 -> 11 ;
12 [label="Variance Z <= 3.2771\nentropy = 0.9566\nsamples = 1024\nvalue = [5, 714, 5, 300]"] ;
8 -> 12 ;
13 [label="entropy = 0.6755\nsamples = 822\nvalue = [5, 701, 5, 111]"] ;
12 -> 13 ;
14 [label="entropy = 0.3445\nsamples = 202\nvalue = [0, 13, 0, 189]"] ;
12 -> 14 ;
}